Startline
people -0.19686 0.11579 -0.41091 -0.46998 -0.29972 0.067654 -0.088857 0.03221 0.25616 3.2108 -0.27731 0.070743 0.021918 -0.10867 -0.15828 -0.14976 -0.51743 0.73892 -0.44249 -0.1234 0.044607 0.19652 0.0043265 -0.053208 0.31904 -0.33364 0.096965 0.082695 -0.070981 -0.24714 0.29223 -0.037456 -0.46527 -0.2264 0.43721 0.052628 -0.23859 -0.16096 -0.14652 0.32018 -0.1126 -0.018967 -0.15709 -0.092215 0.076994 -0.030975 -0.10931 0.13912 0.011352 -0.13433 -0.75631 -0.15791 -0.026654 -0.21694 0.27343 0.0059012 -0.0734 -0.066727 -0.18656 0.10346 -0.0024448 -0.41683 -0.56282 0.341 0.25238 -0.22164 -0.16711 0.0096288 0.14804 0.42298 0.0038793 0.1307 0.61025 -0.17952 0.57403 -0.26145 0.42594 0.20034 0.27907 0.53277 0.26033 0.051359 0.12221 -0.28394 0.15687 -0.11928 -0.50459 -0.61818 0.23585 -0.37804 -0.17496 -0.41944 -0.25162 0.26579 0.080013 -0.046997 -0.14191 -0.024902 0.072114 -0.26104 -0.14287 0.32012 0.14717 -0.37147 0.62168 -1.3571 -0.097738 -0.16252 0.049355 0.37343 0.41569 -0.6502 -0.20782 -0.44522 -0.061022 -0.085939 -0.052818 -0.03814 -0.16339 -0.044295 0.11409 -0.31593 -0.027018 -0.61272 0.62118 -0.1687 0.45207 -0.245 0.09631 -0.15215 0.1677 0.11891 -0.16849 -0.19749 -0.020939 -0.42006 0.011354 -0.18515 0.13675 0.25329 -1.5745 0.21741 -0.01704 0.24579 0.16026 0.0047112 -0.020889 -0.052599 -0.32691 -0.34819 -0.13395 0.025405 -0.084282 0.0013262 -0.17753 0.34388 0.23656 -0.15996 -0.13427 -0.18038 0.10236 -0.048935 -0.011984 0.22873 0.27904 0.14517 0.081365 -0.22411 -0.20964 -0.05192 0.045646 0.16435 0.18239 0.20082 -0.037734 0.036389 -0.27248 0.076205 0.47619 -0.14818 0.12624 0.20367 -0.28018 -0.23791 -0.032136 0.20686 -0.033678 -0.25944 0.32182 0.017986 0.031356 -0.17455 -0.024845 -0.178 0.079404 0.35348 -0.32009 -0.59247 0.0037324 -0.016122 0.14389 -0.13901 0.3374 -0.11756 0.36375 0.29247 -0.098322 -0.28628 0.0092209 0.038727 0.04322 -0.28232 0.018218 0.094614 0.14456 -0.27625 0.046469 -0.12904 -0.15591 -0.30345 0.099123 0.24686 0.0012471 -0.06527 -0.19097 -0.12912 -0.050761 0.11594 -0.37174 -0.33113 -0.32153 -0.17946 -0.0083406 -0.14949 0.46403 0.033473 0.26567 0.033427 0.19559 0.15838 -0.25213 0.14155 0.37133 0.17297 0.25766 -0.21319 -0.21755 -0.27419 -0.63401 0.27682 0.15022 0.23776 0.12569 0.37617 -0.13221 0.73441 -0.030163 -0.23734 -0.10193 0.28865 -0.07575 0.32836 -0.30645 0.18341 0.11045 -0.36757 0.14363 0.28824 0.47819 0.41435 -0.34703 -0.16787 -0.12824 -0.35126 -0.22585 -0.079352 0.016748 0.26776 -0.16806 0.08658 -0.27428 0.21008 0.086993 0.17836 0.055991 -0.028375 0.43394 0.027395 -0.017 0.21599 -0.75303 -0.13934 0.07214 -0.32722 -0.071864 0.32818 -0.2654 0.053146 -0.099581 0.1951
year -0.11006 0.19696 0.17712 -0.28318 0.032341 -0.62464 0.011666 -0.15925 0.1466 2.8368 -0.19475 0.49685 -0.18505 -0.084121 -0.030588 0.1721 0.15315 0.52911 -0.0020979 0.49802 0.073337 -0.10668 -0.066623 0.13292 -0.073506 0.23516 -0.42557 0.084228 0.046153 0.54195 -0.24028 -0.32884 0.35481 0.053465 0.2261 0.20656 0.1643 -0.2899 0.39998 0.20815 -0.35987 0.2873 0.50177 0.069212 -0.16981 -0.017105 -0.26018 0.12943 0.2005 -0.21167 -0.36845 -0.42531 0.13996 -0.47134 -0.047154 0.26875 0.33205 -0.089298 0.24682 -0.39601 -0.31701 -0.5044 -0.19058 0.19324 -0.11812 -0.085209 -0.26598 0.00086789 -0.18725 0.14934 0.19653 -0.13423 0.033861 -0.029669 0.22432 0.32168 0.44613 0.23659 -0.27659 0.29127 -0.026698 0.5489 0.13804 0.45007 -0.21497 -0.058459 -0.27794 -0.32235 0.36597 0.14946 0.2958 -0.096831 -0.11722 0.024049 -0.04977 -0.17009 0.34993 -0.12474 0.59673 0.3662 -0.038498 -0.11923 -0.081549 0.14967 -0.15589 -0.2914 0.10805 0.21354 0.147 -0.43716 0.11918 -0.55347 0.16588 -0.085102 -0.29663 -0.12281 0.14765 0.3793 0.33402 0.079536 0.25607 0.048967 -0.26385 -0.22536 -0.21822 0.44414 0.12601 -0.17954 0.12739 0.38814 0.51197 0.25095 0.53496 0.51899 0.25203 -0.10115 -0.050205 0.54925 0.061755 0.18582 -1.12 0.18665 0.64036 0.32864 0.074808 -0.36524 -0.64651 0.03222 0.2597 -0.11348 -0.16903 -0.17564 0.11672 0.25655 0.03946 -0.2979 -0.043282 0.31725 -0.1123 -0.47158 0.050749 0.23849 -0.21552 -0.6158 -0.74593 0.39015 0.20331 -0.13436 0.66687 0.21119 0.28662 0.24767 -0.15458 -0.093576 -0.32994 0.12002 -0.096143 -0.027789 0.19056 0.46017 0.0072777 0.22259 -0.23034 -0.0932 0.10067 0.0038275 -0.60528 0.23908 0.38705 0.099099 0.24419 0.064781 -0.044775 0.26572 0.55593 0.12622 0.12828 -0.23986 -0.29872 0.040512 0.0050216 -0.32219 -0.057331 0.039034 0.44204 0.070834 0.18659 0.083839 0.072187 0.438 -0.33892 0.2918 0.16536 -0.65387 -0.17808 0.38962 0.20728 -0.3862 0.26265 0.3128 -0.30677 -0.15409 0.0065644 -0.14943 0.060567 -0.10727 0.43987 -0.086448 -0.13961 0.13153 0.33009 -0.002934 -0.21726 0.3021 -0.26853 -0.46205 -0.11872 0.076694 -0.20723 -0.14085 -0.4315 -0.18929 0.087855 0.6311 -0.087257 0.10647 0.095203 0.39636 -0.1168 0.25185 -0.18433 -0.0068957 0.14492 0.1712 -0.056409 0.46447 0.050356 -0.42781 -0.093519 0.14887 0.64149 0.57153 -0.75274 0.55931 0.037844 -0.62992 -0.16294 -0.28791 0.080472 -0.13556 0.282 -0.092362 0.028232 -0.44833 -0.49963 -0.072381 -0.061803 0.21281 0.13397 -0.061075 -0.033844 0.32738 -0.62325 -0.022894 0.11007 -0.19196 0.27662 -0.39028 -0.15982 0.62926 -0.16772 0.18131 0.033276 0.012642 0.023906 -0.44661 -0.38183 0.1669 0.14567 -0.35014
day -0.037723 0.27865 0.11353 -0.14521 -0.093572 -0.32232 -0.16499 0.084118 0.18785 2.7747 -0.033603 -0.054646 -0.14605 0.002249 -0.17875 -0.0065103 -0.32874 1.0667 -0.026363 0.12596 -0.32265 0.034175 -0.44741 0.18105 0.02408 0.14825 0.0041632 0.074698 -0.12927 0.23933 0.033282 -0.33529 0.083667 -0.049306 0.15212 0.55034 0.12487 -0.21181 0.079932 0.43622 -0.32945 -0.082614 0.21434 0.14089 0.044485 0.27869 -0.566 0.29058 0.26248 -0.36876 0.035034 -0.25742 0.37567 0.26719 0.11649 0.19502 0.071646 0.0011271 0.33039 -0.48441 -0.021532 -0.16511 -0.056269 0.16992 0.12893 -0.054826 -0.25099 0.38518 -0.18291 -0.011709 -0.24808 0.0074104 0.28764 -0.24608 0.46314 0.18726 0.37093 0.28995 -0.41092 0.33253 0.32911 0.32334 0.0028975 0.13814 0.0078058 -0.23804 0.16428 -0.28822 0.47167 0.2224 0.2328 0.076805 -0.28445 0.039779 -0.16958 -0.045119 0.12546 0.058081 0.5698 0.026194 0.2149 0.043434 -0.038395 -0.22394 -0.20162 -0.27668 0.51404 -0.0029581 0.22245 -0.11245 0.4464 -0.69051 0.20815 0.43133 0.11966 -0.29402 0.027932 0.25835 0.24582 -0.012293 0.48656 -0.53099 -0.42819 0.030429 -0.20677 -0.065772 -0.11447 -0.051048 -0.16453 -0.21154 0.49591 -0.38017 0.054439 0.17248 0.13596 -0.41593 0.13865 0.34168 0.13668 0.023356 -1.776 0.020549 0.37059 -0.10024 0.39155 0.093375 -0.44973 0.12126 -0.036839 -0.14958 0.0065245 -0.018581 0.20851 -0.094753 -0.21017 -0.079381 0.03456 -0.18052 0.044497 -0.36753 -0.22052 -0.076549 -0.25714 -0.1294 0.22613 0.067256 0.15303 0.15588 0.30944 0.45906 0.27052 -0.22537 -0.036448 -0.052726 -0.35229 0.34003 -0.13294 -0.50016 -0.13686 0.12318 -0.11997 -0.30289 -0.09585 0.26528 0.19833 0.046746 -0.16251 -0.043265 0.52959 0.074661 -0.32629 0.26214 0.10904 0.072696 0.34562 0.55913 -0.058731 -0.33815 -0.024422 -0.29037 -0.071756 0.064244 0.29026 0.12455 0.18739 -0.025279 0.023057 -0.185 0.093345 0.32143 0.11123 0.17498 0.21046 -0.16281 -0.17869 -0.16391 0.26494 -0.3811 -0.15735 0.26706 -0.032544 -0.3535 -0.030829 0.2084 -0.2176 0.13547 0.14766 0.23124 -0.36576 0.038005 0.16683 0.50142 0.091421 0.448 0.019098 -0.16875 -0.10555 -0.21502 -0.35728 0.085766 -0.292 0.013821 0.07791 0.50648 0.076293 0.34614 -0.295 0.18087 -0.28645 -0.31454 -0.23841 -0.12411 -0.10219 -0.099909 0.15278 0.68238 -0.0017879 -0.47248 -0.20057 0.33075 0.57855 0.32515 -0.531 -0.093926 0.049079 -0.26358 0.03713 0.26147 0.21151 -0.12514 -0.054375 -0.13615 -0.22998 -0.025739 -0.26964 0.30954 0.0080422 0.14308 0.48359 0.19556 0.080167 -0.58983 -0.2287 0.15251 -0.031902 0.11937 0.26952 -0.47843 0.04167 0.45971 0.19438 0.032061 0.25287 -0.25823 -0.0072971 -0.15081 0.0033429 0.15185 -0.17125 0.040859
information -0.16667 0.24299 -0.39939 0.20986 0.14948 0.49459 -0.19593 -0.24854 -0.11974 2.2897 -0.75139 0.41522 -0.075962 -0.37651 -0.096129 -0.3133 -0.081973 1.9802 -0.47717 -0.52501 0.41386 -0.1475 -0.16712 -0.21149 0.30725 0.28349 0.28099 -0.14401 0.0027939 -0.21542 0.072089 -0.30612 0.42754 0.14957 -0.25046 0.17553 -0.29171 0.12512 -0.01913 -0.04378 -0.2517 -0.016671 -0.22145 -0.052088 -0.26676 0.17068 0.12619 0.032053 0.48109 0.0063197 -0.43716 -0.28566 0.28533 0.24143 -0.22162 0.032132 -0.24823 -0.15825 -0.32187 0.090522 0.091075 0.4788 -0.12315 0.56834 0.31174 0.33817 -0.35388 0.63138 0.19711 0.12116 0.19744 -0.13781 1.0128 -0.37758 0.35474 0.04613 -0.055878 -0.44882 0.22205 -0.087923 0.23276 0.1493 -0.37209 -0.055629 0.30444 -0.24505 -0.62636 0.15123 0.49729 0.23587 -0.49507 0.05898 -0.3525 -0.47548 0.31514 -0.16758 -0.48878 -0.19611 0.18222 -0.30842 -0.18681 -0.30761 0.081656 0.30331 0.09885 -0.81298 -0.050686 0.071269 -0.12933 0.14967 0.14497 0.071481 0.39181 0.22623 0.41412 0.10565 -0.47607 0.24521 0.033277 0.18676 -0.28984 0.23575 0.12344 0.20141 0.17816 -0.043021 0.28376 -0.20512 0.34683 -0.084112 0.048288 -0.3281 -0.30565 -0.47744 0.029364 -0.070839 -0.14015 0.067166 0.39453 -0.29391 0.42062 0.035197 0.030954 -0.044593 -0.13269 -0.33772 0.16478 0.15478 -0.050799 0.37867 -0.129 0.005294 -0.022065 -0.22806 -0.46614 0.46269 0.17199 0.034054 -0.092529 -0.012098 0.31054 -0.074565 0.10236 -0.22349 0.062102 0.16381 0.15625 0.15524 -0.038094 -0.090974 -0.3208 -0.032803 0.44905 0.16861 -0.17327 0.33792 0.060793 0.095545 -0.15885 0.77993 0.26911 0.095857 0.23984 0.018547 0.098464 0.1975 -0.29178 -0.089885 -0.30309 0.12125 -0.072453 -0.20581 0.069696 0.60544 -0.52324 0.29637 0.16772 0.058485 0.36628 0.50067 0.14796 -0.475 0.027506 0.27671 -0.046529 0.37063 0.56397 0.38907 -0.2675 0.46438 -0.16751 -0.24128 -0.18781 0.0382 -0.42033 0.026292 -0.047678 0.088423 -0.76054 -0.037239 0.10221 0.25847 0.10912 0.27147 -0.12226 -0.0057732 0.13894 0.16683 0.1354 -0.24119 -0.18754 -0.15936 0.10812 -0.26224 0.22362 0.23293 -0.22115 -0.17072 -0.084378 0.14857 0.1753 -0.21308 -0.019447 -0.52549 0.34057 -0.24954 -0.023531 0.244 0.14543 -0.14539 0.44605 -0.32205 -0.10523 -0.12995 0.098313 0.28191 -0.0039707 -0.57608 0.014413 0.078025 -0.01885 -0.15554 0.058653 -0.0086376 0.022066 -0.32974 -0.1053 0.28396 1.0084 -0.46277 -0.40834 0.25039 0.17851 -0.50404 0.34512 0.34846 0.28925 0.10035 -0.34152 -0.30899 -0.034493 0.57694 0.65469 -0.16049 0.029696 -0.030176 0.018253 -0.19408 0.5526 -0.4948 -0.6857 0.16229 -0.17303 0.10238 0.51579 -0.48403 -0.40926 -0.27543 0.31801 0.864
love 0.13949 0.53453 -0.25247 -0.12565 0.048748 0.15244 0.19906 -0.06597 0.12883 2.0559 -0.44339 -0.10174 0.27118 -0.12429 -0.45753 0.055878 -0.30395 0.79543 -0.2906 0.51908 0.16909 -0.32743 0.20606 -0.083885 0.19696 0.32847 0.087838 -0.12784 0.30979 0.20692 -0.085855 0.5479 -0.42344 0.34573 0.22921 -0.21538 0.091481 -0.27801 -0.34183 -0.13067 -0.24061 0.25755 0.13109 0.32772 0.20634 0.29093 -0.4216 0.48984 0.24333 0.037458 -0.16604 -0.17116 -0.1662 -0.31993 0.54011 0.26113 -0.52505 -0.13453 -0.12183 -0.038383 0.13733 -0.35703 -0.70702 0.045393 -0.080799 -0.037749 0.021431 0.22084 -0.073788 -0.26571 -0.25704 0.13375 -0.20073 0.12515 0.10129 0.2928 -0.057409 0.094001 0.021467 -0.16589 0.28369 0.2415 0.12153 -0.21843 0.31459 -0.56409 0.032922 -0.27864 0.29464 -0.22066 -0.097385 0.048704 -0.2443 0.30807 0.1167 0.38387 0.13172 0.17848 -0.39812 -0.3939 0.25316 -0.15681 -0.17198 -0.11697 0.20308 0.058334 0.032858 0.065567 -0.025386 -0.019887 0.2489 0.072835 0.0011936 -0.39003 0.18767 -0.16083 -0.028072 0.23153 0.27805 -0.014002 0.028585 -0.34755 0.1415 0.053722 0.71957 0.39155 0.028079 -0.038999 0.058233 0.04528 -0.43391 -0.15049 -0.39168 -0.0053075 0.0014706 0.017932 -0.27675 -0.23026 -0.044797 -0.11469 -3.2899 0.036923 0.36969 0.052848 -0.53959 -0.22668 -0.11084 0.27184 -0.27381 -0.39751 -0.15191 0.40173 0.25833 0.10584 0.039291 -0.14396 -0.16432 -0.64371 -0.3486 -0.24962 0.054873 0.3909 -0.10165 0.0016311 0.17129 0.21923 0.35316 -0.4935 0.093036 0.1298 -0.11907 -0.1133 0.60814 -0.37138 0.47935 0.20217 -0.27977 0.073912 0.12773 -0.36454 0.21015 -0.36394 0.15769 -0.17778 -0.13651 0.0394 -0.536 -0.42339 -0.044968 -0.16835 -0.088618 -0.26202 -0.13446 -0.56185 -0.014444 0.145 -0.04111 -0.37047 0.18296 0.468 -0.3303 -0.21653 0.014545 -0.097622 0.30537 -0.15802 0.13984 0.22848 -0.08337 -0.040741 -0.45021 -0.079202 -0.00894 -0.50169 -0.13536 0.31606 0.33749 -0.25901 0.26496 0.14153 0.11648 0.19042 -0.0036783 0.30213 -0.072898 0.061077 0.29146 0.13043 0.102 -0.10795 -0.51278 0.14385 -0.52894 0.062404 -0.1509 -0.23326 -0.20287 -0.093445 -0.011326 0.22487 0.13957 -0.014241 -0.018765 0.38323 0.064715 -0.10319 -0.66647 -0.10057 0.077504 0.37604 0.24435 0.05035 -0.39705 -0.11248 -0.14296 0.33583 0.17513 -0.050436 -0.13719 0.055704 0.055732 0.31925 -0.26293 0.30683 0.094407 0.3444 0.30324 0.41765 -0.10427 0.4185 -0.67893 -0.16072 -0.82023 -0.014762 -0.091018 -0.0089553 -0.026122 -0.13455 0.19263 0.33113 -0.15297 -0.36822 -0.14649 -0.31547 0.13963 0.29885 0.67198 0.22049 -0.18279 -0.24811 -0.12438 0.17844 -0.099469 0.0086822 0.089213 -0.075513 -0.049069 -0.015228 0.088408 0.30217
life 0.09359 0.50877 0.011249 -0.074822 -0.21277 0.094341 -0.16024 0.045002 0.28186 3.0452 -0.40774 0.1384 -0.20935 0.49564 -0.12923 0.36538 -0.18192 1.2735 -0.36868 0.34798 -0.12679 -0.1673 -0.030244 0.031194 0.24509 0.16998 0.70296 0.014148 -0.099059 0.74362 -0.20938 -0.14192 -0.42907 -0.29325 0.17678 0.0087017 0.38812 -0.27855 -0.19297 0.27176 0.23095 0.13742 0.14242 0.19423 0.052459 -0.055126 -0.48701 -0.26373 0.43684 0.19248 -0.085656 -0.24178 0.012045 -0.48641 0.16453 0.21221 0.14488 -0.27538 0.66493 -0.19113 0.21024 -0.18261 0.097996 -0.17293 0.069578 -0.18883 -0.33132 0.33626 -0.33214 -0.11338 -0.39028 -0.31538 -0.39386 0.14993 -0.32571 0.27753 0.23921 0.043924 0.032146 0.022401 0.17706 0.4261 -0.35696 -0.10295 -0.14459 -0.40309 -0.39549 -0.47524 0.48968 0.25491 -0.50969 0.084697 -0.50391 0.064866 -0.45695 -0.17411 0.22777 -0.012331 -0.29403 -0.18234 0.11519 -0.12923 0.18192 -0.038613 -0.041216 -0.91363 -0.0051615 0.44221 0.046937 0.011555 0.038256 0.44803 0.01233 -0.74641 -0.07268 -0.18927 0.015158 0.11616 0.10832 0.17255 -0.15205 -0.22158 0.18747 0.074567 0.41566 -0.055851 -0.41208 -0.015677 0.41329 -0.1601 0.34864 -0.16556 0.026538 0.044007 0.32407 -0.090213 -0.18819 -0.067234 -0.35523 0.28978 -1.781 -0.22613 0.13459 0.13911 -0.064118 -0.17653 -0.10917 0.6021 -0.13963 -0.18802 -0.055337 0.013834 0.33822 0.1112 -0.29785 -0.19184 -0.036406 -0.3085 0.025048 -0.64944 0.27759 0.24515 0.47902 0.20892 0.49981 -0.083682 0.63963 -0.2037 0.44046 0.036809 0.011368 -0.24729 0.49235 0.13972 0.10946 0.20801 -0.0095702 0.017321 -0.058169 -0.30542 0.30778 -0.09469 -0.030329 0.23546 -0.0068366 0.10094 -0.40648 -0.13312 -0.035235 -0.073251 -0.29837 0.21887 0.088103 -0.039952 -0.10254 0.55667 -0.044081 -0.44902 0.053805 0.24675 -0.32553 -0.1293 -0.096423 0.036045 -0.38624 0.020023 0.47635 0.082651 -0.31689 -0.12868 -0.26187 0.059764 0.093741 -0.1206 0.34972 -0.33792 0.80027 -0.0059939 0.40268 -0.19054 -0.083397 0.034371 -0.2678 0.21029 -0.1069 -0.22895 -0.051365 0.056601 -0.24135 0.29009 -0.27064 0.15978 0.27716 0.4251 -0.10246 0.035551 -0.012834 -0.096773 -0.43232 -0.095802 0.11572 -0.080812 0.11624 0.18124 0.043113 0.33848 -0.16992 -0.19768 0.084633 0.051479 0.14298 -0.13628 0.08655 -0.22543 0.1399 0.38274 0.10934 -0.1236 0.0017246 0.17835 -0.38779 0.69994 -0.10648 0.13607 -0.020823 -0.30275 -0.12937 0.24268 0.21506 0.26346 -0.31854 -0.29268 -0.40012 0.13609 -0.23033 0.30833 -0.068172 0.30909 0.089538 0.27109 -0.25071 0.063577 -0.099656 -0.37736 -0.043083 -0.12244 0.39983 -0.12932 0.049166 -0.078324 -0.41038 -0.34551 -0.35428 -0.13926 -0.033614 0.32722 0.035367 0.33613 -0.31116 -0.39478
world -0.0066796 0.22238 0.27709 -0.1676 0.39934 -0.26935 0.11758 0.82171 -0.296 2.7338 -0.51854 -0.3998 0.045268 0.070994 0.3821 -0.19731 -0.41031 0.91488 -0.045642 0.19991 0.035154 0.040459 0.052444 0.16124 0.1828 -0.15186 0.31278 -0.014228 -0.075154 0.63618 -0.0030658 0.11577 -0.015101 -0.095193 0.42313 -0.35243 0.15452 -0.39491 0.061847 0.45658 0.18395 -0.034329 0.080296 0.21393 -0.1217 0.012957 -0.23259 -0.084731 0.044998 -0.14019 -0.070056 -0.12399 -0.45609 -0.10087 0.39152 -0.19437 0.31484 -0.24423 0.78843 -0.2722 0.035652 0.071816 -0.099133 0.01026 -0.14698 0.019898 0.15508 -0.094629 -0.11017 0.03424 -0.19389 -0.43287 0.2924 0.20294 -0.4454 0.33994 0.0088975 -0.015746 0.44674 0.48578 0.047199 0.2385 -0.17062 0.13774 -0.073939 -0.85463 -0.95668 -0.25329 -0.11777 -0.11812 -0.52252 0.20321 -0.63754 0.1349 -0.18466 -0.18157 0.026867 -0.021901 0.26663 0.27428 0.33822 0.08203 -0.28889 -0.073748 -0.0089901 -1.0196 -0.015378 0.098236 -0.18926 0.10841 0.25414 -0.20826 -0.075681 -0.22413 -0.18159 0.46597 0.20012 0.28821 -0.063588 -0.2563 -0.21808 -0.15706 0.26271 -0.41973 0.10095 0.16371 0.22834 -0.12602 0.37693 -0.23717 0.42714 -0.12639 0.2122 -0.38119 -0.095456 -0.26961 -0.13042 -0.21551 -0.18953 0.30259 -1.9741 -0.5203 0.29876 0.057871 0.21359 -0.34952 0.53584 0.3652 -0.3708 -0.063623 0.25807 -0.026754 0.31513 0.26846 0.065093 0.00025803 -0.13588 0.2498 -0.13909 0.11234 0.33316 0.34609 -0.030484 0.19027 0.20124 -0.20287 0.30843 -0.46492 0.27708 0.29172 -0.0097622 -0.30099 0.07657 -0.097341 -0.12393 0.14921 -0.16147 -0.17466 -0.15586 0.21108 0.49188 0.29547 0.14422 -0.33139 0.0026869 -0.32858 0.0051358 -0.1087 0.019086 -0.078923 -0.4063 -0.20526 0.42546 0.29473 -0.29929 0.067783 0.17279 0.16008 0.19886 0.045809 0.072766 -0.086075 0.34542 0.28371 0.35538 -0.25499 0.31744 0.0059334 -0.37372 -0.20612 -0.52648 -0.74487 0.011757 -0.30472 0.026317 -0.13342 0.3067 -0.25618 -0.18582 0.019382 -0.29999 0.20616 0.18106 -0.13167 -0.31513 0.21602 0.0083713 0.3577 -0.47267 0.39963 0.053379 0.17932 0.026909 -0.044594 -0.29042 0.096057 -0.67086 -0.18504 -0.37122 -0.37638 0.24558 0.25896 0.17423 0.23388 -0.040986 -0.22366 -0.24149 0.3369 -0.51075 -0.037846 0.3464 -0.28095 0.070234 0.01557 -0.16339 -0.0046059 0.23066 0.34541 -0.10091 0.38429 0.21258 0.26249 -0.22807 0.16382 0.013648 -0.60375 -0.15751 -0.11807 0.60896 0.44867 -0.68183 -0.37484 -0.26337 0.019173 0.14897 -0.094622 -0.089517 0.25521 0.19849 -0.31701 0.041117 -0.31162 0.061004 -0.0052715 -0.10638 -0.27631 0.021142 -0.11392 0.024777 -0.065339 -0.62834 -0.014461 -0.14295 -0.20125 -0.066727 0.37398 0.031205 0.059372 0.0014085 0.098727
game 0.086444 0.081027 -0.0015578 -0.65229 0.0036894 -0.43055 0.048717 0.28673 0.67267 2.3081 -0.31301 0.062712 -0.042556 0.31536 0.50276 -0.59517 0.18749 0.47462 -0.067982 -0.32575 0.070908 -0.54175 0.66437 -0.36656 0.54323 0.42801 0.28275 0.36518 -0.5731 -0.42559 -0.49679 -0.44321 -0.37171 -0.016119 -0.16179 -0.02547 -0.054019 0.10053 -0.24584 0.1247 0.19035 0.22256 0.083623 -0.56904 -0.10687 -0.012537 -1.1404 0.96959 -0.26961 0.41298 0.0065008 0.30084 0.07634 0.12227 -0.60023 -0.35106 -0.21569 0.27707 -0.16657 0.16061 0.67017 0.78402 -0.0051547 0.45123 0.30165 -0.058157 0.079388 -0.15727 0.41485 -0.15826 0.43873 0.3116 0.084074 -0.19349 -0.25909 0.015266 0.25215 -0.20029 0.27451 1.017 -0.43095 -0.064467 0.15222 -0.053078 0.19662 0.36934 -0.1672 0.34013 0.043602 -0.61778 0.034832 -0.15954 -0.74534 -0.098573 0.50501 -0.46088 0.15983 -0.15429 -0.40008 1.074 0.028648 -0.33974 -0.4026 0.39414 0.18876 -0.21312 0.17222 0.49489 -0.10969 -0.44161 0.75657 -0.55209 -0.68019 -0.13006 -0.095287 0.35141 -0.66922 0.78696 -0.59034 -0.27693 0.24546 0.11286 0.042497 -0.11505 -0.31138 0.085715 -0.19681 0.31533 0.13524 0.12511 0.47039 -0.059044 -0.31935 -0.27962 -0.29429 -0.48419 0.19723 -0.39165 0.22707 -0.57838 -2.7263 0.24213 -0.13757 -0.39146 0.15437 0.24328 -0.25054 -0.11375 -0.071975 -0.39135 -0.098581 0.032276 0.10816 0.15417 -0.75018 -0.23329 -0.032811 0.23051 0.3471 -0.41111 0.070132 0.15982 0.23123 -0.67629 -0.39488 -0.15327 0.32075 0.096358 -0.01566 0.011651 -0.088159 0.60233 0.053858 -0.0072872 -0.15155 -0.1464 -0.41655 0.048742 0.06758 0.08861 -0.32622 -0.030645 -0.011309 -0.086424 -0.33525 -0.20793 -0.29496 -0.0051551 0.13888 0.18257 -0.28899 0.25648 0.38253 0.24357 0.11085 0.21593 0.22786 0.44069 -0.47323 0.23176 1.0532 0.18496 0.49871 0.30364 -0.41203 -0.38163 -0.08386 0.41029 0.22908 0.20723 -0.069718 -0.10947 0.55338 -0.48567 0.14042 0.6906 0.25466 -0.021365 -1.0245 0.2912 0.12613 -0.29868 -0.72428 -0.4646 -0.72622 -0.3072 0.12657 1.1693 0.45265 0.89619 -0.2071 0.41708 0.053912 0.21933 -0.3735 0.31121 0.071383 0.50705 -0.54067 0.25583 0.26958 0.090131 -0.2313 0.42097 -0.77396 -0.5593 -0.49462 0.20429 -0.27581 0.00069735 0.33561 -0.067912 0.12766 0.076038 0.22034 -0.30799 -0.28659 -0.25138 -0.25714 -0.7725 0.47375 0.32384 -0.024083 0.31315 0.27989 -0.16271 -0.18721 -0.10285 0.58838 -0.18074 -0.33674 0.21704 0.18256 -0.185 -0.7319 -0.1548 -0.30637 0.10075 0.22746 -0.14529 -0.15825 -0.18203 -0.81097 -0.14067 -0.11891 -0.057617 -0.72738 -0.71434 0.2483 -0.17984 -0.25264 -0.22295 -0.88192 0.17666 0.50836 0.12774 -0.51012 -0.17262 -0.012179 -0.012467
place 0.407 0.083541 -0.10987 0.18944 0.29473 -0.25205 -0.1541 0.20812 0.18493 2.8573 -0.43763 0.25599 -0.084778 0.052336 0.049743 -0.10438 -0.25551 1.118 0.030053 0.22481 -0.048388 -0.20763 0.031634 0.1035 0.33751 -0.21417 -0.027491 -0.29064 -0.46397 0.17288 0.23209 -0.13226 0.21743 0.17837 0.1621 -0.11191 0.18868 0.19203 -0.053685 -0.11673 -0.36485 0.35377 -0.036834 -0.27543 0.43594 -0.015136 -0.012573 -0.1773 -0.0885 -0.19537 0.1124 0.1453 0.14302 0.30291 0.3043 -0.19604 0.38287 -0.33891 0.24546 0.35186 0.14246 -0.097269 0.088623 0.35057 0.079799 0.14086 -0.13103 -0.068619 -0.051961 0.13885 0.41837 0.086656 0.24741 0.12409 0.1389 0.16138 -0.16765 -0.38587 -0.12221 0.046641 0.015154 0.13515 -0.13351 -0.056884 -0.1719 -0.041936 -0.18648 0.11837 0.17685 0.077331 -0.1557 -0.26519 -0.11968 -0.30866 0.1502 0.037884 0.019875 -0.27421 0.23649 0.2569 0.3206 -0.19646 0.027953 0.066094 0.34138 -0.75691 0.25314 0.049191 -0.036777 0.13176 0.42776 -0.52697 0.058393 0.28503 -0.039036 0.085178 -0.023074 0.065598 -0.54208 -0.22381 -0.2398 -0.34772 0.0027583 0.16276 0.1066 -0.15565 0.17813 -0.38428 0.25395 0.34091 0.1966 -0.10958 -0.024602 -0.17945 -0.12272 -0.17585 -0.078456 -0.083079 0.22881 -0.099199 -1.3031 0.042376 0.36339 0.21939 0.28216 -0.21083 -0.1537 0.13726 0.23887 0.0031406 -0.30377 -0.16321 0.069986 -0.14431 -0.17104 0.011695 0.012023 -0.28162 -0.26284 -0.030562 -0.17029 0.18506 0.31301 -0.18759 0.14252 -0.19711 0.079758 0.11681 0.24877 0.27447 0.2557 -0.084075 -0.1644 0.16322 -0.30041 0.3887 -0.2266 0.0019538 -0.135 0.022719 0.29059 0.019198 -0.093215 0.0037454 0.07225 -0.12001 -0.41127 -0.20564 0.1886 -0.2971 -0.25806 0.044211 -0.040678 0.10147 0.17953 0.41044 -0.10643 -0.23623 -0.15079 0.28678 0.23234 0.085845 -0.15721 0.1507 0.52613 0.19869 0.004814 0.18002 -0.0018586 -0.069379 -0.12309 0.0083302 -0.074138 -0.38844 -0.23357 0.18961 0.12495 0.074701 -0.23531 0.12636 0.02005 0.033157 0.012158 0.21934 0.015222 -0.089649 0.020393 0.20003 -0.46718 -0.12211 -0.01723 0.42382 0.086901 0.0017975 0.046735 0.015754 -0.11187 -0.16558 -0.15921 -0.51942 0.33359 0.23697 -0.26882 0.27475 0.12722 -0.27995 -0.44587 -0.13467 -0.43139 -0.088098 -0.18627 -0.34854 -0.31201 -0.21194 -0.12669 0.69513 0.20338 0.096683 -0.072416 0.071197 0.15146 -0.047645 -0.071709 -0.1402 0.32886 -0.061796 -0.051839 -0.15384 -0.02489 0.16954 0.0034617 -0.081166 -0.044133 -0.1513 -0.31997 0.21514 0.31311 0.23526 -0.032361 0.2472 0.30189 -0.42576 -0.21118 -0.17388 -0.2522 -0.36747 0.18575 0.10487 0.093455 -0.21316 -0.15752 -0.071317 -0.065527 -0.2091 0.072043 0.019184 -0.15989 -0.042277 -0.017143 0.13816
video -0.52861 -0.20294 0.10069 -0.013958 0.23459 -0.15006 0.00085247 -0.68798 -0.22557 1.3055 0.023891 -0.020027 0.27269 -0.24767 -0.44371 0.21204 0.28274 1.3673 -0.71022 -0.31529 0.29419 -0.042375 0.54686 -0.19868 0.30595 0.638 0.15883 0.010665 -0.1954 -0.21175 0.21077 -0.3023 0.22002 0.53024 -0.34134 -0.19005 -0.089062 -0.17427 -0.32519 -0.42455 0.056951 0.033323 0.047226 -0.068021 -0.44834 0.69417 -0.11075 0.24785 -0.21142 0.11932 -0.0063635 -0.36627 0.15429 0.25848 -0.60398 0.049049 0.27856 -0.038251 -0.0099174 -0.28483 -0.31829 0.42412 -0.020275 0.52944 0.82792 -0.43161 0.41429 -0.20247 -0.43578 -0.44111 0.073049 0.053439 0.23181 -0.14374 -0.02099 -0.72475 0.13873 0.32818 0.14339 0.55742 0.27263 -0.27463 0.22651 0.32111 0.2911 -0.011612 -0.62484 -0.21093 0.43628 -0.44018 -0.44655 0.023728 -0.20748 -0.30531 -0.11148 0.076094 -0.063845 0.12904 0.11639 -0.064628 0.014027 0.21656 0.093531 0.30593 0.18264 0.080722 -0.033801 -0.30826 0.23862 -0.22906 -0.5364 -0.31468 -0.083728 -0.1591 0.61058 -0.037493 -0.049433 0.93609 0.11656 0.44589 0.10938 0.12461 0.010273 -0.079328 -0.48861 0.35972 -0.092391 -0.066315 0.58287 0.29429 -0.22907 0.091203 0.68694 0.18056 0.16084 0.20956 0.15785 0.12021 0.10016 0.0019548 -2.8751 -0.4287 0.07947 -0.28562 -0.23571 -0.11379 0.025935 -0.3074 -0.62981 -0.0043099 -0.40929 -0.016596 -0.34637 -0.38588 0.080289 0.25115 0.097089 0.36304 0.08293 -0.50849 0.020951 0.43968 0.53451 0.049177 -0.60585 0.33314 0.191 0.72279 -0.50429 0.17279 -0.39679 -0.29704 0.68045 0.20202 0.036655 -0.08441 -0.18232 0.14343 -0.16102 0.21652 -0.23646 -0.11771 0.66024 -0.36341 -0.1257 0.085618 -0.41293 0.7758 -0.31989 -0.39805 -0.076501 0.14874 0.21731 0.27802 -0.18454 0.081592 0.071498 0.038284 -0.11916 -0.12976 0.42854 0.038081 0.27491 -0.44271 0.10215 -0.099754 0.19088 -0.002152 -0.050014 0.0024096 -0.30231 -0.34031 0.11973 -0.27025 -0.47829 -0.044703 0.1372 0.064179 0.010675 0.029798 -0.3343 -0.034261 -0.6946 0.25335 -0.38389 0.39412 -0.024064 0.28879 0.30959 0.51265 -0.29178 -0.47303 0.2732 0.12728 -0.041097 0.093358 0.14897 0.21289 -0.23347 0.039887 0.23787 -0.38276 0.3873 -0.71969 0.31687 -0.3037 -0.019909 0.19063 -0.5037 0.44732 -0.036685 0.27375 -0.010651 -0.24983 0.077418 -0.17155 0.17247 0.0028838 0.086333 -0.35073 0.72623 -0.34768 0.044179 -0.36307 -0.013758 -0.56516 0.58766 0.12561 0.35709 0.58164 -0.80847 -0.25052 -0.0611 -0.19647 -0.13022 0.074834 0.0080034 -0.3523 0.32905 0.17629 0.54585 0.21307 0.083846 0.26273 -0.29531 -0.070638 -0.14118 -0.20353 0.30385 -0.63402 -0.58722 0.15289 -0.25134 -0.13222 0.37809 -0.29728 -0.25948 -0.26134 -0.13322 0.45741
number -0.02483 0.32008 -0.24504 0.024725 0.46568 -0.18137 0.23866 -0.050997 0.09395 2.0941 -0.40772 0.21199 0.0050889 -0.56066 0.3319 0.13197 -0.28701 1.782 0.14819 -0.22309 -0.58303 0.2091 -0.25588 0.061338 0.15245 -0.34375 -0.20005 -0.37231 0.33981 0.10224 0.46512 0.12882 0.13455 -0.46834 0.17099 0.5957 0.016947 0.20057 0.1971 -0.079222 -0.26569 -0.0074856 0.17616 -0.17398 0.047827 0.14384 0.20144 0.46558 0.31386 0.39764 -0.36234 -0.16298 0.20991 -0.30968 -0.39693 0.25404 0.39216 -0.18883 0.07751 0.12833 0.2327 0.16454 -0.22154 0.48182 -0.031255 0.29898 -0.006225 0.37422 0.066098 0.07698 0.40624 -0.24529 0.57428 -0.29197 0.16656 -0.015114 0.16909 -0.18651 0.45821 0.26598 0.013913 -0.12802 -0.23678 -0.1835 0.15971 0.30021 -0.099462 -0.10574 -0.09154 -0.13056 -0.4178 0.20828 0.159 -0.36487 -0.23572 -0.20154 -0.34267 0.36484 -0.064613 0.14397 -0.53577 -0.038506 0.32969 0.42032 0.056947 -1.1715 -0.049194 -0.11582 -0.4198 0.2817 0.29017 0.085168 0.18672 0.33967 0.21778 -0.11972 -0.015004 0.47437 -0.26135 -0.16904 -0.019356 0.34548 -0.021624 -0.35844 0.018976 -0.053731 0.38546 -0.13468 -0.27718 -0.20958 0.35501 0.61779 0.20207 -0.39887 0.13413 0.1548 0.3911 0.030891 -0.22206 -0.1712 -0.58261 0.52758 0.15585 0.17348 0.068413 -0.033698 0.22956 -0.076959 -0.26326 0.20652 -0.06808 0.14618 0.28113 0.16892 -0.50098 -0.18163 0.14164 0.3049 -0.33872 -0.36941 0.18982 -0.25913 0.1487 -0.20705 -0.19386 -0.26348 0.13968 -0.093514 -0.036937 -0.042673 -0.15312 0.33512 0.0063341 -0.22319 -0.40203 0.21385 0.034192 0.027337 -0.34798 0.12984 0.14215 0.44405 0.11908 -0.17333 -0.06598 -0.10433 -0.33991 0.068644 -0.1483 0.29125 0.33515 -0.015696 0.4811 0.44137 -0.0044682 -0.075753 0.11384 0.18822 -0.47548 0.17994 -0.0022804 -0.70299 -0.33038 0.097293 0.20812 0.31941 -0.12531 0.19175 -0.40318 0.30383 0.16993 0.20538 0.031908 -0.52934 -0.075198 0.14244 -0.46277 -0.080556 -0.35348 0.24822 0.15937 0.099182 0.18577 0.29033 0.069743 -0.026376 0.30063 -0.17587 0.12561 -0.030755 0.23086 0.19285 -0.046109 0.19511 -0.26586 0.084083 -0.24627 -0.060904 -0.13663 0.34954 -0.19745 0.41608 -0.045181 0.66634 0.032394 -0.42746 0.40418 -0.1565 -0.03013 -0.11372 0.14889 0.16887 0.14644 -0.048336 0.32642 0.55399 -0.046431 0.19067 0.33777 0.32204 0.30505 0.2863 -0.55349 0.22856 0.012668 -0.089728 0.67485 0.1497 1.0175 -0.089579 -0.23418 0.3477 0.28651 -0.60065 0.17082 0.045735 -0.10668 0.18145 -0.16373 -0.24749 -0.15519 0.9166 0.083526 -0.12933 0.069708 0.10171 0.16397 0.045969 -0.11723 0.38305 -0.31423 -0.19709 0.55017 0.54231 0.021126 -0.13441 -0.1912 -0.11115 0.049528 -0.0619
family -0.012915 0.37364 -0.13332 -0.28754 0.34285 -0.13437 0.31249 -0.46877 0.21565 3.2295 -0.60759 0.008392 0.20983 0.07127 -0.33174 -0.094412 0.18584 0.92464 -0.096517 0.3251 -0.32978 -0.44535 -0.19465 0.61653 0.35656 0.23991 0.023272 -0.0056761 -0.40104 0.10889 0.14322 -0.25958 0.19049 -0.048593 0.3117 0.14619 0.42143 -0.33318 -0.23139 0.33957 0.18446 -0.069072 -0.034697 0.39787 0.31212 0.16392 0.22275 -0.55881 0.90957 0.56981 -0.30839 -0.55751 0.2697 0.42272 0.13441 0.043661 -0.32969 0.35517 -0.17976 0.32357 0.7668 0.44923 -0.009315 0.27116 -0.019999 -0.19384 -0.40713 0.61171 0.026768 0.10776 0.038864 0.30081 -0.46167 0.028184 0.2719 0.0165 0.3411 0.037714 0.27917 -0.2292 0.27357 0.48887 -0.2164 -0.088514 0.2501 -0.053824 -0.26612 -0.2558 0.67827 -0.01708 -0.4715 0.7063 -0.11441 -0.063951 -0.066221 -0.14912 -0.23585 0.0016436 0.29966 0.063799 -0.16305 0.1039 0.11411 -0.015701 -0.1639 -0.5748 0.53179 0.16553 0.17352 -0.052326 0.19145 0.61443 -0.28908 0.15707 0.10432 -0.46177 0.10873 0.017484 0.24907 0.29331 -0.24475 -0.23587 0.061943 -0.50885 0.26354 0.27505 0.11891 -0.63304 0.032903 -0.18007 -0.16546 0.35532 -0.31508 -0.1267 -0.44512 -0.41261 -0.018702 0.11607 0.088905 0.46327 -1.0943 -0.52057 0.28967 0.27642 -0.48415 0.14251 -0.41909 0.049144 0.23235 -0.25545 -0.23363 0.40964 0.25269 -0.035397 0.055025 -0.01912 0.47061 -0.0037647 -0.19984 -0.44163 0.11137 0.0070371 -0.099708 -0.26599 0.36623 -0.30737 0.20532 -0.25539 0.738 -0.14372 -0.15177 0.2087 0.19895 0.74802 -0.30085 -0.47795 -0.33736 -0.096518 0.077442 0.071109 0.12901 -0.4894 0.13566 0.27888 0.070616 -0.13539 0.0098341 -0.10204 -0.45962 -0.28689 -0.75236 -0.046523 -0.34242 0.028467 0.065694 0.31724 -0.12947 -0.29666 0.23819 0.18218 -0.32881 -0.35064 0.3522 -0.30338 0.027287 -0.00096586 0.11985 0.2748 -0.5695 -0.44809 -0.87168 0.43277 0.13849 0.33947 0.10876 -0.46341 0.64621 0.021731 -0.052799 0.080196 0.0047035 -0.36527 0.12008 0.42333 -0.29899 0.10917 -0.28959 0.13482 -0.31021 0.23182 -0.51991 -0.42218 -0.097269 0.50212 0.20288 -0.17373 -0.15953 -0.12366 0.33349 0.13642 -0.3128 0.2854 0.39363 0.42642 0.169 -0.015048 -0.35797 -0.074418 -0.1635 -0.25843 0.72654 0.35199 0.010222 -0.085916 0.2842 -0.052945 -0.13079 -0.29727 -0.23161 -0.087496 -0.67446 0.16051 0.12182 0.10235 -0.25236 -0.074293 -0.11251 -0.067368 -0.53673 0.10827 -0.32336 -0.037511 -0.51284 -0.32566 -0.30596 0.17299 -0.36574 0.28095 -0.52343 0.14988 0.14183 0.20204 -0.30628 0.16899 0.17395 0.71511 0.21232 0.34286 -0.55915 -0.013525 -0.4698 -0.10413 -0.30038 0.29717 0.15169 0.11328 0.11281 -0.3807 -0.062887 -0.22051
company -0.010464 0.39163 -0.33662 -0.84683 0.15433 -0.018507 -0.21521 -0.51394 0.0055722 2.7784 -0.7317 0.040331 0.12255 -0.21674 0.044901 -0.2497 0.19559 1.3566 -0.19514 0.066914 0.3946 0.24551 -0.34957 -0.07881 0.13335 0.22648 -0.091347 0.0094516 0.069236 -0.32644 0.31751 -0.063941 0.092733 0.64521 -0.068239 0.39045 -0.083687 -0.083648 0.19981 -0.14774 0.25461 0.19914 0.27933 -0.24322 0.09882 -0.32354 0.16777 -0.29555 0.36543 0.13093 0.11362 -0.097307 -0.090927 0.27206 -0.097522 -0.38483 0.040447 -0.252 0.35034 -0.54789 0.43454 -0.389 0.049572 0.59363 0.25072 -0.20318 0.064053 0.16337 -0.28892 0.061715 -0.49722 0.023981 0.081569 -0.15475 -0.17447 -0.029285 0.25519 -0.27069 -0.066985 0.23532 0.2441 0.11964 -0.22375 -0.24078 -0.098486 -0.20762 -0.77382 0.69916 0.04517 -0.053558 -0.1128 -0.036958 -0.37487 -0.24288 0.14191 -0.0060118 -0.018057 -0.46063 -0.014689 0.41629 0.043742 0.12396 -0.28764 0.3883 -0.25618 -0.93209 0.6007 0.37488 -0.29642 -0.0044432 -0.070118 0.14031 -0.025384 0.42337 -0.18009 -0.0020668 0.8401 0.19663 0.63289 0.31816 0.30116 0.18255 0.5648 -0.23569 -0.097652 0.2832 0.43568 -0.087018 -0.46105 0.055859 -0.014047 0.030075 0.10563 -0.26131 -0.12569 -0.12196 -0.54208 -0.13919 0.056078 -0.19603 -0.29181 -0.48824 -0.039417 -0.055567 -0.18525 0.071821 -0.092115 0.202 0.26801 -0.39392 0.12197 -0.25809 0.059685 -0.28875 0.11227 0.3714 -0.52194 0.20274 0.22237 -0.052872 -0.4616 0.13812 -0.21861 -0.074643 -0.37099 -0.11487 0.012915 -0.10832 0.33542 -0.27166 -0.22702 -0.14787 -0.59298 -0.14653 -0.14549 -0.39027 -0.15276 0.35521 -0.16505 0.58398 0.8412 -0.046175 0.21379 -0.65961 -0.68491 0.30699 -0.068712 -0.0043984 -0.086723 0.13096 -0.015686 -0.14162 0.32074 0.26579 -0.19753 -0.24909 0.58763 0.30456 0.18604 0.15802 0.16393 -0.16872 -0.090445 0.0029845 -0.023582 0.46096 0.14207 -0.11627 -0.062433 0.11924 -0.71211 -0.083812 0.1363 0.38692 0.61917 0.11584 0.42544 -0.48642 -0.26155 -0.012851 -0.39943 0.12618 0.242 0.68156 -0.096485 -0.48993 -0.16395 0.063033 -0.45254 -0.20757 0.30432 -0.15363 -0.36883 -0.28555 -0.14249 -0.24587 -0.35921 -0.34348 -0.051747 0.090553 0.15935 -0.13188 0.5612 0.34451 -0.097567 -0.5377 0.16771 -0.49156 -0.1978 0.30857 0.21279 -0.081099 0.065559 -0.38106 0.16931 -0.48772 -0.1407 0.44734 -0.18814 -0.056802 0.5251 0.85028 -0.13713 0.21487 0.29107 -0.55315 0.081484 -0.087401 0.56606 0.097683 -0.006652 -0.15748 0.16211 0.15763 -0.24392 -0.024086 -0.21059 -0.037863 0.94303 -0.13673 -0.63093 0.2173 0.21823 0.78548 -0.18056 0.20469 0.056509 0.34943 0.23172 0.11169 -0.96481 -0.036159 0.050163 0.29999 -0.22223 -0.55782 0.018588 0.097204 0.011506 0.33223
money -0.75073 0.08165 0.090288 -0.34719 -0.60598 -0.026782 -0.17644 -0.45973 0.48586 2.912 -0.82821 0.44448 0.14028 0.11009 -0.45023 -0.21889 -0.48917 0.74006 0.15316 0.55353 0.096078 0.17717 0.020261 -0.035839 -0.043881 -0.11955 -0.019034 -0.30087 -0.0053294 -0.16692 0.1779 -0.48102 0.15397 0.15131 0.12383 -0.10739 -0.097154 -0.14213 0.18673 0.21388 -0.16718 0.40141 0.49244 -0.7016 -0.16582 0.19418 0.26764 -0.34181 -0.15499 0.22845 -0.05256 0.27192 -0.20114 0.034382 0.30014 -0.18081 0.18739 -0.10126 -0.33541 0.0065063 -0.096152 -0.39275 0.08839 -0.14326 0.55553 -0.20286 0.42895 0.61838 0.33416 -0.47662 0.27773 0.19445 0.34664 -0.10697 -0.34542 0.34373 0.62362 -0.064473 0.091416 0.42528 -0.20646 0.2477 -0.13523 -0.073583 -0.41975 0.06926 -0.028202 0.009952 0.58684 -0.11167 0.038202 -0.063212 -0.41043 -0.23745 -0.1762 -0.038275 -0.2544 -0.13288 -0.47841 -0.0050255 -0.31475 -0.068493 -0.62857 -0.13137 0.084347 -1.0206 0.11359 0.36712 0.0012456 0.12298 -0.039581 -0.31181 0.1071 -0.13516 0.15723 -0.13278 -0.22609 -0.45392 -0.0071908 0.0043692 0.26999 0.3389 0.059122 0.096725 -0.30617 -0.35927 -0.39494 0.065454 -0.091461 -0.13096 0.16288 0.3496 0.16886 -0.33125 0.009141 0.10708 -0.18034 -0.1994 -0.32442 -0.43343 -1.4761 0.34623 0.38946 -0.13654 -0.15954 -0.32569 0.23179 0.51308 -0.084581 0.1522 0.26776 0.01746 -0.21571 -0.37438 0.14138 -0.052014 0.26114 0.09676 -0.68415 0.10464 0.33308 0.28728 -0.056032 0.21836 0.12074 -0.088215 0.48419 0.031212 0.45606 0.25513 -0.34513 -0.28589 0.46174 0.0041577 0.14968 0.34966 -0.18795 0.35592 0.309 0.45104 0.51843 -0.052481 -0.22508 -0.0087954 -0.25836 0.41106 -0.65868 -0.32066 0.13824 -0.073236 0.35861 -0.10987 -0.088021 -0.29454 0.2962 -0.22191 -0.040455 0.32829 0.21456 0.42981 0.409 -0.54774 0.30733 -0.20681 -0.51839 -0.32243 0.52888 -0.028582 0.24299 0.092166 0.29088 0.37548 -0.29645 0.10666 0.69564 -0.44895 0.052755 -0.0090064 -0.66103 0.29655 -0.31708 -0.08471 -0.53129 -0.37884 -0.26507 -0.42389 -0.20696 0.68911 -0.092065 0.14784 0.5144 -0.44691 0.11699 -0.074862 -0.29763 0.10319 0.26896 0.17953 -0.47203 0.25994 -0.015207 -0.069744 0.058417 0.4105 0.48497 -0.47363 -0.1266 -0.37049 -0.23683 0.41325 0.42893 -0.10476 0.025687 -0.19751 0.050634 0.80262 -0.48974 -0.39151 -0.12298 0.21623 -0.17469 0.5603 -0.16414 0.33723 0.46297 -0.53414 -0.037214 -0.245 0.54923 0.042396 0.13729 -0.39566 -0.00412 -0.21788 -0.14594 -0.33395 0.10686 -0.30278 0.1229 -0.15734 -0.25648 -0.131 -0.12962 0.54344 0.0055791 0.21595 0.1385 -0.18448 -0.55459 0.14897 -0.62992 -0.034711 0.096065 -0.16232 0.27856 0.049664 0.093182 -0.25006 0.035672 0.45065
man -0.1731 0.20663 0.016543 -0.31026 0.019719 0.27791 0.12283 -0.26328 0.12522 3.1894 -0.16291 -0.088759 0.0033067 -0.0029483 -0.34398 0.12779 -0.094536 0.43467 0.49742 0.25068 -0.20901 -0.58931 0.061615 0.10434 0.24424 -0.2912 0.30746 0.36276 0.71151 -0.080523 -0.59524 0.34834 -0.33048 0.070316 0.53329 -0.29081 0.13459 -0.39856 -0.32435 0.11867 -0.14938 -0.38256 0.33116 -0.31488 -0.094491 -0.061319 0.15518 -0.25523 -0.11813 0.25296 -0.095174 -0.16596 -0.1084 0.088803 0.2089 0.43981 0.0010476 -0.040666 0.26487 -0.61009 -0.14405 -0.081185 0.0075475 0.23373 -0.027772 -0.29315 -0.11744 -0.083193 -0.23768 0.15735 -0.56408 -0.29323 0.016387 -0.07816 -0.21301 -0.17845 -0.30769 -0.46203 -0.002522 0.42973 -0.045647 0.43434 0.29144 -0.20231 0.065217 -0.42321 0.71227 -0.55498 -0.36118 -0.14849 -0.10082 -0.10045 -0.17666 0.027141 -0.14148 -0.52112 -0.048785 -0.29672 -0.14418 -0.28042 -0.068216 0.64455 0.094982 0.084994 0.082954 -0.25255 -0.46606 0.27432 0.14998 0.056889 0.34382 -0.35301 -0.40666 0.013636 0.06307 0.34924 0.17517 -0.17623 -0.080157 0.12179 -0.14025 -0.26541 0.17016 0.12596 -0.21399 -0.21077 -0.46861 -0.22138 0.0016753 -0.14527 0.11256 -0.024644 -0.25005 -0.43965 0.46923 0.20156 0.32739 0.068498 -0.20121 -0.078691 -2.6755 0.14326 0.069114 0.36917 -0.11858 -0.21332 0.24918 -0.12622 0.05595 -0.28807 -0.59173 -0.090193 -0.18155 -0.3347 -0.074857 0.11898 -0.41698 -0.19773 0.19724 0.11124 0.26915 -0.43901 -0.058556 0.4202 0.2738 -0.097767 0.075527 -0.21164 -0.19093 0.35376 -0.69182 -0.025014 0.058887 -0.17279 -0.44822 -0.15286 -0.21873 0.22586 -0.13494 0.0077586 -0.28582 0.0603 -0.0061573 -0.30737 -0.8251 0.58975 -0.41435 0.098575 -0.080579 -0.6051 -0.31138 0.23793 -0.33706 0.097126 0.41277 0.27025 -0.071067 -0.51049 -0.080376 -0.16188 0.013121 0.21678 -0.27958 -0.19755 -0.34668 0.10901 -0.15878 0.011535 -0.02506 -0.24669 0.027795 -0.46083 -0.16082 -0.16443 0.34003 -0.61288 0.0013028 -0.12118 0.38965 -0.43394 0.066747 0.24109 -0.31253 0.27997 0.14047 -0.016265 -0.060792 0.65612 -0.071277 0.082271 0.08524 0.15606 -0.21927 -0.12083 -0.20386 -0.0039694 -0.043643 0.42532 -0.33641 0.30292 0.29297 0.12963 0.15872 -0.31301 0.26109 0.24433 -0.019605 -0.44197 0.45351 0.22184 0.036002 0.30979 0.028024 0.29232 0.088706 0.13376 0.56731 -0.17374 0.37015 -0.29521 0.03411 0.41392 0.015641 -0.31128 -0.34823 0.3356 0.172 0.41568 -0.26028 0.33601 -0.0041509 -0.016774 -0.26867 0.050892 -0.1267 0.46916 -0.11842 0.29402 0.35544 0.073157 -0.19305 0.2306 -0.26933 0.062013 -0.0547 -0.38535 -0.13039 -0.084836 0.098583 -0.15403 -0.36347 -0.19985 -0.22663 -0.53781 -0.24666 0.019266 0.21319 0.16665 -0.38341 -0.073803
book -0.25634 0.37457 -0.004352 -0.031364 0.4971 0.50019 -0.3169 -0.029405 -0.22395 2.381 -0.81318 0.27069 0.34308 -0.078216 0.2674 -0.51941 -0.31679 0.8491 0.022034 -0.53105 0.086985 -0.11785 0.21479 0.039043 -0.099961 0.11391 -0.21741 -0.32704 -0.29491 -0.086 -0.24382 0.098824 -0.02263 0.29134 0.27264 0.33285 0.045503 0.098407 -0.18514 -0.46821 0.0914 -0.022837 -0.24866 -0.79528 0.051666 0.18128 0.21811 0.15358 0.64734 -0.29907 -0.098936 -0.32219 0.045833 0.22118 -0.28844 -0.25109 0.40069 -0.21542 0.09279 -0.42477 0.046412 -0.22256 -0.055182 -0.1102 0.13496 -0.63449 -0.043407 0.25229 0.06561 1.0135 0.054721 -0.54421 0.27582 -0.23639 0.33991 0.11534 -0.17382 -0.42888 -0.19768 0.55116 -0.22891 -0.16489 0.6914 -0.24166 0.21811 -0.3985 -0.61071 -0.49987 0.21985 0.35202 -0.45856 -0.16199 -0.43864 -0.078832 0.25368 -0.088571 0.18792 0.3635 0.40715 -0.56314 0.24543 -0.74103 -0.38724 -0.40286 0.0033783 0.088642 0.033623 0.48821 -0.22392 -0.13939 0.36022 0.51909 0.70442 -0.46184 0.0122 -0.56128 -0.50418 0.46753 0.26218 -0.0081772 0.24817 -0.074339 0.20707 0.45504 0.036068 0.59985 -0.21424 -0.23995 0.36992 -0.46037 -0.2692 -0.618 0.030972 -0.080024 -0.40317 0.13505 -0.0032945 0.2585 -0.17027 -0.34692 -1.5861 -0.72986 0.16456 0.20123 -0.17948 -0.34914 0.22743 -0.33119 0.068335 0.15171 0.57997 0.33034 0.0043133 0.034984 -0.060907 0.089192 0.063378 -0.24068 -0.3988 0.063328 0.045041 0.16286 0.35618 -0.11985 -0.19891 -0.29243 -0.1531 -0.26166 0.2364 0.13252 -0.075734 0.17711 0.31448 -0.5544 0.197 0.039871 0.56064 0.046555 -0.14556 0.034471 -0.018021 -0.12383 -0.014558 -0.63402 0.27232 -0.23781 -0.18943 -0.42285 -0.091308 0.63186 -0.69358 0.0078969 -0.27174 0.41445 -0.43317 -0.13055 0.028033 -0.072683 0.52468 -0.20732 0.057344 -0.6957 -0.15571 -0.25513 0.16345 0.24935 -0.19287 -0.076101 -0.34182 0.4688 0.44854 0.067478 -0.20677 -0.92246 0.44716 0.18048 0.21567 0.096788 -0.18985 0.024123 0.31783 -0.3747 0.28202 0.037258 -0.30159 -0.23624 -0.36413 0.084364 -0.22839 0.59109 -0.19638 0.22846 -0.056219 -0.049417 -0.40668 -0.24509 0.024752 0.038166 -0.19141 0.16327 -0.11418 0.051323 -0.38583 0.10588 0.39432 -0.056757 -0.21799 0.17173 -0.11728 -0.51396 0.17771 -0.7021 -0.15885 0.17542 0.39674 -0.18419 0.21364 -0.51103 -0.40885 -0.064368 0.060471 -0.20733 0.059923 0.65416 0.75107 -0.49157 0.21521 0.47855 0.53864 -0.20111 -0.70458 -0.7353 0.0294 -0.10443 -0.17909 0.065676 -0.6985 -0.098871 -0.34124 -0.0027798 -0.2062 -0.12418 -0.19 -0.7491 -0.27923 0.29526 0.18807 0.14369 -0.34845 -0.1693 -0.15428 -0.038286 -0.12579 0.34074 0.67666 0.034156 0.70225 -0.44008 0.15951 -0.40153
area 0.51204 0.059539 -0.087961 -0.17016 0.68801 -0.039484 -0.10195 -0.1153 -0.26836 2.9042 -0.33084 -0.13222 -0.23147 -0.31716 -0.48477 -0.12177 0.454 1.8505 -0.062309 -0.5131 0.14222 0.23765 -0.14277 -0.27493 0.20603 -0.40031 0.071758 0.64416 -0.43175 -0.075593 0.24719 0.12791 -0.13492 -0.48637 0.30224 -0.17867 -0.14616 0.12512 -0.19584 -0.28802 -0.23633 0.098716 0.13014 0.011769 -0.34329 0.21738 0.25407 -0.14652 0.11876 -0.16923 0.1521 0.079311 0.11338 0.52828 0.25255 -0.27627 -0.1695 -0.1254 0.38661 0.73398 -0.15172 0.038117 0.11267 0.81657 -0.0183 -0.35915 -0.090551 -0.049443 0.17239 0.64626 -0.082009 0.17962 0.28462 -0.21132 -0.016747 -0.051483 -0.052613 -0.14009 0.18214 -0.15288 0.32271 0.46364 0.11781 -0.37136 0.078243 0.46259 -0.061636 1.0891 0.077136 -0.30036 0.073219 -0.061452 0.16757 -0.21183 0.28877 -0.27001 -0.23172 0.35189 0.020765 0.43117 -0.0022086 0.15654 0.32828 0.12314 0.56612 -0.81354 0.059186 -0.46821 -0.0035309 -0.1714 0.24595 0.047936 0.25511 0.30142 0.093281 0.048741 0.14546 0.073097 -0.48052 -0.34806 0.00080739 0.0071063 0.26132 -0.13058 0.007922 -0.27422 0.033287 -0.2878 -0.047503 0.35038 0.074679 -0.45719 -0.38252 0.070026 0.2456 0.030145 0.11273 -0.2655 0.26812 -0.012468 0.074599 0.40354 -0.16445 0.18752 0.29895 0.14974 -0.15994 -0.19052 0.15262 -0.014481 -0.77427 0.46499 0.22265 -0.2564 -0.38285 0.1002 -0.065144 0.22023 -0.4067 -0.12833 0.39967 -0.027049 -0.16891 0.14593 0.60728 -0.064789 -0.11679 0.086659 0.34551 0.24005 0.35656 -0.020764 -1.0346 -0.034517 -0.040454 0.082138 -0.17717 0.17945 0.19835 0.10781 0.28422 -0.091405 -0.34121 -0.19813 0.010862 -0.48362 -0.26906 -0.15622 0.089253 -0.07739 -0.2258 0.012959 -0.40483 0.16493 -0.11119 -0.25031 0.092319 -0.39551 0.020473 0.27392 0.39873 0.057005 -0.16086 0.10151 0.27837 0.11062 -0.29163 0.072683 -0.34375 -0.48809 0.020974 -0.32653 -0.07784 -0.39261 -0.067128 -0.1505 -0.44175 -0.031244 0.18825 0.10763 0.26917 -0.22645 -0.04128 -0.28841 -0.10451 -0.068841 -0.20069 -0.11289 -0.10615 0.095038 -0.16105 -0.12755 0.5642 -0.10114 0.41233 0.5318 0.61768 -0.26593 0.19108 -0.051407 0.28426 -0.163 0.1635 0.2361 -0.095115 0.11328 -0.058491 0.29267 -0.12875 -0.41931 -0.052422 -0.18347 0.41458 0.044227 0.25114 0.83147 0.018763 -0.25971 -0.1127 0.015288 0.012824 -0.46018 0.052847 -0.45062 -0.098365 -0.10528 0.05994 -0.23518 -0.074947 -0.095088 -0.71888 0.24747 -0.35207 -0.81625 -0.34268 -0.17652 -0.0091457 -0.28977 -0.35061 -0.099959 0.26215 0.10281 -0.50353 -0.18973 -0.28029 -0.39384 0.41812 -0.17777 -0.12099 -0.29317 -0.1632 0.047929 -0.049306 -0.51483 -0.14109 -0.23091 -0.27873 0.10363 -0.17698 0.054338
school 0.10231 0.2774 -0.057097 -0.16604 0.29103 -0.15729 -0.33118 0.11592 0.22646 3.3402 -0.73287 0.26872 0.13334 -0.038197 -0.081015 0.47644 0.41689 1.0219 -0.066328 0.14834 0.30457 -0.76863 0.15904 0.047977 0.20988 0.27269 -0.62956 -0.079367 -0.023195 0.19068 0.15862 -0.057242 0.19668 -0.47071 0.48903 -0.21129 -0.11273 0.47352 0.21075 0.33359 0.1046 0.047514 0.11426 0.3076 0.33857 0.20811 0.030078 0.13355 0.2165 -0.63801 -0.39047 -0.20004 0.42835 0.19531 -0.16132 -0.10286 0.18095 0.32884 0.049451 -0.12373 -0.32832 -0.3355 0.41615 -0.2899 0.094909 0.015505 -0.49192 0.70344 0.33711 0.42636 -0.31334 -0.62247 0.1779 -0.32016 -0.017283 0.31126 0.13653 0.77221 -0.12526 0.69577 0.28953 0.43627 0.15844 0.41637 0.065641 0.51587 -0.12926 0.34383 -0.16889 -0.077537 -0.4277 0.076671 0.041407 -0.73552 -0.11563 -0.26909 0.61159 0.12828 0.23932 0.064508 0.35018 0.057577 0.01005 -0.23475 -0.32683 -0.60586 -0.043096 0.17794 -0.13609 -0.46597 -0.29191 -0.017809 -0.44452 -0.23981 -0.10605 -0.12411 0.18916 0.08104 -0.51542 -0.003047 0.45744 0.2986 0.32056 -0.040322 0.25691 0.33885 0.38223 0.069732 0.39397 0.48331 0.32691 -0.16012 0.002142 0.027423 0.47367 -0.10141 -0.045262 0.14045 0.17598 0.22751 -1.1368 -0.21197 -0.10442 -0.050004 -0.028276 0.32507 0.013847 -0.2297 -0.46469 -0.1954 -0.25135 0.24029 -0.43111 0.30603 0.30693 -0.26108 -0.31239 -0.40456 0.52324 -1.1471 -0.27716 -0.038038 0.30041 -0.45567 -0.48686 0.054001 -0.39325 -0.22535 0.35284 0.28994 0.080478 -0.054502 0.22245 -0.19612 -0.051898 -0.13115 -0.26102 0.43384 0.044173 0.018264 0.018981 0.19824 -0.33316 0.34529 0.099016 0.0031422 -0.49834 0.42895 0.32991 -0.21199 -0.13176 -0.21659 -0.48054 -0.09119 -0.16022 0.26258 0.21203 -0.43261 0.46557 0.021055 0.69764 0.1387 -0.32135 -0.095979 0.043524 -0.0097266 -0.13662 -0.17486 0.55267 0.27717 -0.67105 0.9651 -0.41098 -0.37228 -0.30207 -0.058612 -0.069067 0.074147 -0.30229 0.4331 -0.45071 -0.47696 -0.57949 -0.16059 -0.21879 0.61176 -0.30071 0.23126 0.12959 -0.12779 -0.35382 -0.22504 0.19988 -0.047344 -0.091219 0.015223 0.40316 0.20907 -0.16731 0.23421 -0.65015 -0.24606 0.29379 -0.15006 -0.12015 -0.061663 -0.55886 0.043561 0.20707 -0.099082 -0.26719 0.38133 -0.28862 -0.18744 0.54136 0.022808 -0.22616 -0.58038 -0.21335 -0.033459 0.28692 0.44342 0.11251 0.015466 -0.042011 -0.34885 -0.95505 -0.22811 -0.27811 -0.044938 -0.56437 0.32925 -0.19116 -0.31198 -0.1474 -0.2911 0.17369 -0.064199 -0.23355 -0.277 -0.52407 -0.18427 -0.70804 0.28013 -0.041304 -0.14412 0.43143 -0.22724 -0.52981 -0.44312 0.5532 -0.42218 0.47357 0.41354 0.18404 0.057756 -0.17041 -0.31888 0.2366 -0.15062
team -0.15062 0.19176 0.12533 -0.042991 0.31704 -0.24065 0.14743 0.090488 0.40655 3.0561 -0.28949 -0.25165 -0.033145 0.22195 0.66781 -0.27786 0.331 0.59995 0.094806 -0.13722 0.23426 -0.34162 -0.099341 -0.30621 -0.044878 0.53492 -0.29161 -0.024661 0.12984 -0.20009 -0.027533 -0.3711 0.10631 0.12155 -0.14031 0.019946 0.4236 -0.26081 0.069157 -0.37644 0.17784 0.13289 0.26736 -0.10349 -0.23473 -0.60039 0.11238 0.73238 -0.11507 0.041879 0.56054 -0.33816 0.39729 -0.62261 -0.43662 0.13363 -0.26888 0.43192 0.60554 0.083988 -0.15318 0.077393 -0.3857 0.44588 0.0096945 0.065146 -0.0066706 0.50908 0.31592 0.59336 -0.28724 0.04631 -0.0040343 0.49824 -0.48405 -0.058073 0.19899 -0.85577 0.33781 0.30299 0.00032135 0.058822 -0.054064 0.11848 0.014795 0.072557 -0.85022 0.42693 -0.35129 0.14925 0.28576 -0.056026 -0.411 -0.12279 -0.1251 -0.36495 -0.044394 -0.15925 -0.14828 0.70475 0.070193 -0.34148 0.011955 -0.24837 0.0035932 -0.32402 0.34403 0.099158 -0.045489 -0.15185 0.052434 -0.44199 -0.23843 0.38337 0.14798 0.609 0.22102 0.39587 -0.17393 -0.24968 0.65431 -0.33592 0.39623 -0.15827 -0.018336 -0.38719 0.30632 0.29153 -0.42441 -0.071075 -0.079701 0.6441 -0.23844 -0.23052 0.26133 -0.37408 0.11611 -0.29489 0.47717 -0.15779 -0.97832 0.35892 0.45766 0.48798 0.28061 0.0060703 -0.17831 0.33191 0.032939 -0.15312 -0.36485 0.066358 -0.080322 0.021903 -0.23958 0.31115 -0.31756 0.38194 -0.018873 -0.14185 -0.060459 0.17383 0.056803 -0.7398 0.42856 -0.097805 -0.022864 -0.38346 -0.31252 0.22201 -0.39416 0.031778 -0.56385 -0.00207 -0.065591 -0.16914 -0.37801 0.31544 -0.19553 0.15906 0.16385 0.09327 0.07264 0.0023557 -0.18351 -0.13704 -0.17324 0.434 0.20464 -0.022755 0.27387 -0.10858 0.30722 0.65511 -0.30107 0.46516 0.38591 -0.023855 0.31173 0.50373 0.38757 -0.18606 -0.0008854 0.0016385 0.14617 -0.012609 -0.19044 0.14848 -0.24912 0.085711 -0.21825 0.3417 0.61817 0.34615 0.14834 0.89453 0.39996 -0.52967 -0.58609 -0.040869 -0.25589 -0.22838 -0.38128 0.18269 0.0044116 0.14248 -0.082224 0.22972 0.22707 0.064078 -0.6379 0.24955 -0.49961 0.17511 -0.20891 0.064352 -0.29036 0.062552 -0.23822 -0.017355 -0.29244 -0.086295 -0.27353 0.2833 -0.30325 -0.47477 -0.47284 -0.21001 -0.27698 0.41792 0.38111 -0.055839 -0.54522 -0.16981 0.31839 -0.82174 -0.22553 -0.20256 -0.63736 -0.39412 0.63536 0.60004 0.16202 0.012417 0.22683 0.1744 -0.011737 0.17467 0.25011 0.2465 0.23955 0.38623 -0.18402 -0.2472 -0.37468 -0.1179 0.48772 -0.018398 0.24915 0.32596 -0.64491 -0.0057218 -0.94271 0.15159 -0.41149 -0.26284 -0.20156 -0.10368 0.31824 -0.077016 0.082008 -0.16427 -0.01765 -0.0022793 0.21879 -0.46245 -0.10395 -0.2263 -0.013063 -0.42834
water -0.036665 0.20106 0.2851 -0.43246 -0.39545 0.30987 -0.79159 0.41187 -0.33271 1.9379 -0.61917 -0.19816 0.13055 -0.16503 -0.62101 0.013309 -0.29613 2.3431 -0.62299 -0.21075 0.25922 0.039819 -0.35368 -0.24054 0.18503 -0.28281 0.091869 0.20203 0.25665 -0.2135 -0.16991 -0.15173 -0.33541 -0.64444 0.16339 -0.27155 0.54039 -0.32857 0.47726 -0.13705 0.047238 -0.25229 0.099208 -0.16887 -0.25823 0.14962 -0.6794 0.019638 -0.1092 -0.14687 0.40982 0.46903 0.074614 0.44393 -0.055369 -0.56503 0.21197 -0.12935 0.14031 0.64158 0.28903 -0.22638 0.24099 0.43298 -0.52761 -0.042839 -0.43374 -0.19068 -0.53757 -0.1047 -0.48181 0.58251 0.26624 -0.51268 -0.13023 0.28806 -0.33605 0.49754 0.29968 -0.73096 0.23977 0.17858 -0.40493 -0.0722 -0.32426 -0.63478 0.53628 1.0066 -0.35409 0.72775 -0.022701 -0.437 -0.098996 -0.1466 0.064749 -0.80984 -0.0098738 -0.12653 0.057375 -0.18718 0.28084 0.068107 -0.8009 -0.02296 -0.40845 -1.4583 -0.07804 -0.13897 -0.26018 -0.85785 0.13829 -0.53882 -0.55413 -0.19553 0.27652 -0.30186 0.29493 0.24467 0.07519 0.50151 -0.15831 -0.23487 -0.37287 -0.85027 -0.049534 -0.13192 -0.38348 -0.041931 0.17169 -0.16503 -0.24795 -0.43618 0.16425 -0.01756 0.28267 0.64302 0.12798 0.075033 0.61581 0.15125 -1.3475 0.3338 0.61358 0.38683 0.36597 0.095193 -0.35098 0.055837 -0.080567 0.14829 0.045927 0.27409 0.23304 0.42742 -0.58813 -0.4526 -0.065998 0.76931 -0.077444 0.30605 0.40982 -0.14389 -0.24193 0.77352 0.42992 0.0038604 -0.17445 -0.37388 -0.042349 0.54897 -0.21122 -0.2692 0.053854 -0.39542 -0.26183 -0.067689 -0.10091 0.2072 0.30407 -0.30235 -0.12474 -0.32774 -0.31567 -0.17201 0.43191 -0.57361 0.15542 0.11111 -0.29748 -0.43406 -0.23315 0.00012856 -0.21736 -0.0022883 0.20208 0.72397 0.22167 0.51293 -0.22676 0.050753 0.062123 0.62281 -0.14516 0.46907 0.21518 0.34214 0.44307 0.50663 0.57701 -0.17533 -0.38675 -0.39262 0.40508 -0.46347 0.096403 -0.047639 0.12498 -0.027788 -0.22073 0.1635 -0.29113 0.28889 0.59691 0.26679 0.11291 -0.35082 0.019529 0.12104 -0.6788 0.19679 0.58624 -0.34332 0.40507 0.11253 0.027961 0.29478 0.50234 -0.092297 -0.11831 -0.25222 -0.35615 -0.20947 0.22789 -0.29294 -0.16879 0.20061 -0.30139 -0.63424 -0.070012 0.23786 -0.25329 -0.40892 -0.12847 0.073232 0.24609 1.0516 0.040224 -0.15712 0.041256 -0.28097 0.38165 0.12886 0.15026 -0.36046 0.62247 -0.31683 -0.20912 0.34379 -0.10679 -0.059462 0.60003 -0.083553 -0.14807 0.10901 0.18346 -0.076626 0.0095484 -0.025222 -0.34752 0.15121 -0.0090765 -0.31087 -0.41102 0.30245 -0.37265 0.17909 0.74924 -0.076798 -0.16339 0.19804 -0.24857 -0.46994 0.23321 -0.69223 -0.12801 0.4607 -0.56677 -0.34485 0.16798 -0.16952
music 0.31855 0.53331 0.26514 0.1145 0.39786 0.15012 0.0063637 -0.6698 -0.11957 2.0047 0.069729 0.40038 0.0044696 -0.008986 0.078558 -0.10006 0.04945 0.93725 -0.54365 0.11022 0.082038 0.1548 -0.2588 -0.24685 0.34784 0.16734 -0.066438 0.39029 0.54362 0.017046 0.29121 -0.38335 -0.26849 0.072205 -0.3094 0.16987 -0.1483 0.23399 0.54379 0.14395 0.427 0.47503 -0.18156 0.55505 -0.25173 0.06909 0.35115 -0.077091 -0.53551 0.040812 -0.26846 -0.3689 -0.34882 0.4252 -0.079917 -0.23062 0.27218 -0.45625 -0.16919 -0.94935 -0.012725 0.18676 0.11075 0.74308 -0.58259 -0.52302 -0.022354 0.070377 0.16609 -0.29183 -0.16418 0.30195 0.045677 -0.53092 0.023194 -0.40472 -0.044543 0.69661 -0.37464 0.32554 0.4674 0.08796 -0.35652 0.24958 -0.17659 0.19115 -1.2964 -0.079347 0.33034 -0.20214 -0.66551 -0.44709 0.074631 0.60858 0.23371 -0.57424 0.48143 0.54276 -0.52155 -0.074808 -0.090259 -0.48315 0.35769 0.20709 -0.039966 -0.18599 0.27441 0.065158 0.3685 -0.22487 0.42542 -0.022049 0.0055826 0.06712 -0.017861 0.26763 0.52716 0.68078 -0.19617 0.386 -0.082564 0.38041 -0.10978 0.24066 0.0114 0.40679 0.023271 0.15173 0.63619 0.34864 0.66118 -0.63188 0.047308 0.089685 0.3848 0.70553 -0.23958 -0.14955 0.30895 -0.41478 -2.9514 -0.11941 -0.19654 -0.044868 -0.32659 0.022819 0.36248 -0.2704 -0.59509 -0.42385 -0.14065 0.020701 -0.19648 0.19533 0.17769 -0.47727 0.39 -0.89317 -0.19559 -0.38795 0.39175 0.13192 0.77833 -0.2641 0.077442 -0.092171 0.16104 0.16547 -0.51802 -0.39738 0.28199 0.1958 0.015932 -0.35169 0.29684 -0.01453 -0.035694 -0.23246 0.11149 -0.35984 0.25649 -0.10628 0.72898 0.50279 -0.39887 0.22123 -0.43148 -0.35989 -0.021326 -0.47883 -0.15377 0.084897 0.034561 -0.3091 -0.21815 -0.075744 -0.12288 -0.057897 0.29616 -0.28449 0.1619 -0.46297 0.26925 0.34259 0.42829 -0.58269 0.10567 -0.015011 0.27046 -0.30678 -0.62859 0.2748 0.068132 -0.1381 -0.055932 0.29623 0.20015 -0.53919 -0.020578 0.55694 0.062411 0.0089958 -0.38668 0.025408 -0.24043 0.074839 0.27647 0.18223 0.11647 0.27968 -0.10573 -0.53246 0.0085216 0.27223 -0.0038184 -0.24446 -0.16882 -0.043567 -0.23134 -0.33838 -0.17611 -0.0017314 -0.043957 -0.091359 -0.2659 0.0052192 -0.016169 -0.052263 -0.27207 -0.4001 0.337 0.3384 0.22586 0.23182 0.15887 0.097682 0.21931 -0.12308 0.097082 -0.049069 0.13077 0.074001 -0.049051 -0.10666 -0.079886 -0.31041 -0.28968 -0.32415 0.6119 0.69015 -1.1744 -0.10894 -0.00029973 -0.31618 0.47643 -0.22657 0.14944 -0.23356 0.10324 -0.26859 -0.045677 0.024147 0.15689 0.1437 -0.11616 0.32479 0.62078 -0.18363 0.10084 -0.69901 -0.69483 -0.52527 0.28497 0.43327 0.37099 0.14678 -0.024074 0.15665 0.0027153 0.45923
children -0.044747 0.24642 -0.18205 -0.16024 -0.16219 -0.5207 0.22527 0.021688 0.19228 3.3191 -0.56233 0.35069 -0.3212 0.43892 0.047276 -0.13586 -0.041502 0.93717 -0.32645 -0.063876 -0.26988 -0.66224 -0.32846 0.13337 0.28338 -0.29134 -0.07594 0.13173 0.20713 -0.18195 -0.11057 -0.46826 0.23237 -0.26124 0.78698 -0.18328 0.061909 0.08246 0.68377 0.59726 0.35321 -0.32339 -0.57215 -0.45433 -0.33985 -0.38504 -0.33618 0.21153 0.55448 -0.2874 -0.55411 -0.73525 -0.0074437 0.11815 0.20294 0.12993 0.042287 0.42355 -0.31821 0.35589 0.31518 0.27774 0.088767 -0.39476 0.21326 -0.050799 -0.13823 -0.17445 0.54479 0.012629 -0.3153 0.0066175 0.20281 -0.1073 1.0371 -0.037946 0.49221 0.45291 0.53595 -0.396 0.3873 0.39299 -0.47571 0.18093 -0.0011345 -0.13281 -0.063752 -0.43567 0.07623 -0.076736 -0.10895 0.14476 0.15971 -0.2656 -0.12486 -0.39326 -0.082958 0.20777 0.79361 -0.17359 0.16908 0.28158 -0.39085 -0.50016 -0.33908 -0.93357 0.14809 -0.012873 0.36697 -0.13539 0.22408 0.10921 -0.44075 -0.48306 0.26824 -0.70974 0.068919 0.17432 -0.0054145 0.2116 -0.40058 -0.45314 0.48825 -0.65356 0.20423 0.079008 0.59768 -0.37101 0.21468 -0.20344 0.94642 0.034605 -0.26814 -0.20098 0.031061 0.12367 -0.026915 0.18451 0.37471 0.3677 -1.0385 -0.19536 0.16404 0.18714 -0.13811 0.45882 -0.001908 -0.32335 -0.30365 -0.86059 -0.084598 0.10001 -0.14475 -0.11539 0.10465 -0.26906 -0.24638 -0.35814 -0.46308 -1.185 -0.061905 0.049478 0.0028293 -0.314 0.056037 0.1658 0.040776 -0.493 0.55604 0.018537 0.17253 0.23721 0.91985 0.3869 0.18495 -0.10248 -0.12769 0.1207 0.25073 -0.12801 -0.10064 0.13115 0.11367 -0.18012 0.216 0.20362 0.13077 0.51692 -0.2714 -0.1422 -0.70921 -0.53011 -0.59667 -0.27688 -0.61743 -0.063591 -0.21833 -0.58588 0.69238 -0.31703 0.36773 -0.23429 0.14702 -0.11168 0.40718 0.34446 -0.087257 -0.19714 -0.21445 0.1201 -0.11343 0.15044 -0.083337 -0.47977 0.40739 -0.65476 0.43232 0.1021 -0.019176 -0.12358 0.15436 -0.27091 0.086928 -0.65405 -0.40469 -0.036542 0.2655 -0.10673 -0.25755 -0.05151 -0.52268 -0.18113 -0.08042 0.27294 0.36515 -0.33333 0.54054 0.27674 0.4277 -0.48016 -0.92435 0.20334 -0.054473 0.29811 0.014493 0.10623 -0.69428 -0.052614 -0.9471 0.072875 0.08675 0.75358 0.53005 0.19938 0.19814 0.90653 -0.026508 -0.23352 -0.19735 0.55916 -0.14874 -0.095528 -0.49596 0.34723 0.19573 0.11629 -0.37997 0.19185 -0.17106 -0.37514 -0.6106 -0.077323 -0.3451 -0.098477 -0.44913 -0.52199 -0.086514 0.2789 -0.57768 0.19135 -0.30912 0.46398 -0.39733 -0.23974 0.33476 0.2022 0.40309 0.097766 -0.24462 -0.13414 -0.17076 -0.17826 0.014987 0.41361 0.32829 0.22367 -0.091112 -0.40895 0.053333 0.041832
start 0.16758 0.32989 -0.45276 0.068471 0.1129 -0.19694 0.25303 0.11283 0.4945 2.2808 -0.21942 0.079528 -0.11018 0.025222 0.18778 0.024873 -0.40045 1.2957 -0.24181 -0.1584 -0.064028 0.096875 0.12254 0.23813 0.021025 0.10367 -0.0503 -0.53745 0.34627 -0.2796 -0.27976 -0.44464 0.24533 0.074202 0.45282 0.27866 0.24155 0.29468 0.36467 0.050994 -0.15967 -0.038891 -0.38762 -0.23457 -0.17794 0.41893 -0.039756 -0.042022 -0.35176 -0.26752 0.10126 -0.096967 0.19945 -0.13228 0.24515 -0.17421 0.30018 -0.4119 0.092241 -0.38802 0.0092519 -0.079428 -0.33452 -0.10831 0.33875 -0.41437 0.053913 0.083939 0.43174 0.31958 0.31892 0.13938 0.34876 -0.3094 0.40032 0.13662 0.084301 -0.21256 0.098191 -0.031354 -0.078342 -0.021977 0.030957 0.028259 -0.14436 0.37638 -0.086027 -0.17096 0.56447 0.44492 -0.23851 -0.13459 0.32474 -0.030167 -0.49241 0.085454 0.19647 -0.3842 0.24169 0.094954 -0.21703 -0.15918 0.050722 -0.33748 0.17588 -0.68326 0.08317 0.075841 0.37835 0.44611 0.00049748 -0.74356 0.30821 0.026967 -0.11025 -0.216 0.13032 -0.079136 -0.10227 0.13334 0.22474 -0.23389 -0.21867 0.15202 0.17845 -0.13858 -0.021169 0.21279 0.34048 -0.20211 0.2092 0.37225 -0.15658 0.040696 0.017176 -0.15809 0.098054 0.18966 0.40695 -0.089906 -1.7775 0.1673 -0.090824 -0.52082 0.00099546 0.047628 -0.26985 0.17114 0.12283 0.33539 -0.14435 0.14162 0.3677 0.28121 -0.017321 -0.007088 0.43806 -0.045447 0.13628 0.029349 -0.26587 0.14348 -0.31143 -0.31015 0.10524 -0.1193 -0.092763 -0.032249 0.4608 -0.1671 -0.039821 0.0072151 -0.21543 -0.27045 0.0092696 0.080175 0.20644 -0.014705 0.28997 0.14811 0.2867 0.21552 -0.5825 -0.13518 -0.15316 0.036208 -0.10558 0.092672 0.066073 -0.13599 0.22338 0.10416 0.094895 -0.20622 0.31592 0.50329 -0.012155 0.023885 0.35927 0.35666 0.21856 -0.20123 0.3239 -0.14805 0.13068 -0.11751 -0.08877 -0.31747 0.28622 0.30832 -0.19826 -0.25721 0.49258 0.06582 -0.49861 0.094807 0.17881 0.011754 -0.38198 0.025854 0.13866 -0.34745 -0.2237 0.2029 -0.28416 -0.08357 -0.070236 0.28138 0.25042 -0.036842 0.27479 0.21858 0.19282 0.035256 -0.24866 0.13767 -0.24862 0.035999 -0.31338 0.32616 0.1545 -0.16482 0.07107 0.11181 -0.62146 -0.3685 -0.4626 0.29665 0.19459 0.28204 -0.16357 -0.32789 -0.22029 0.16052 0.20504 0.14261 -0.11957 -0.19542 -0.55741 0.19548 0.62318 0.4471 0.48878 0.41849 0.42575 -0.39453 -0.27928 -0.0076096 0.48377 -0.1735 0.49824 -0.093246 -0.145 -0.12544 -0.21372 -0.18514 -0.030201 -0.1081 0.57923 0.36012 0.24358 -0.18907 -0.45389 -0.040129 0.22214 -0.16675 0.13251 -0.14979 0.34921 -0.043238 0.12498 0.28808 -0.30145 -0.17559 -0.0071295 0.0055362 -0.34117 0.056744 -0.2337 -0.23278
American -0.20357 0.064711 0.41415 0.11331 -0.094626 0.2554 -0.60775 0.64015 -0.57879 2.7554 -0.29499 0.12832 -0.26594 -0.41076 0.032032 -0.54141 -0.13396 0.35061 -0.23951 0.053054 -0.085855 -0.17817 -0.19993 0.22169 -0.070257 -0.515 -0.3741 -0.12772 0.32192 0.66858 0.18217 0.5122 0.25206 -0.16422 0.19774 -0.11388 -0.26902 -0.14111 0.12574 0.89334 0.028011 0.76803 0.40972 0.061203 0.43405 0.011499 -0.18242 -0.052791 0.6346 0.11724 -0.79049 -0.094064 -0.45881 -0.40944 -0.46513 0.33722 0.28042 0.095643 -0.15991 -0.19556 -0.090946 -0.020045 0.024361 0.32728 -0.36408 -0.2979 0.59933 -0.1267 -0.060181 0.2133 0.24445 -0.39131 0.0091688 0.10242 0.22696 0.20063 -0.53511 0.2067 -0.012558 0.38219 0.16541 -0.29621 0.084202 -0.33114 0.096181 -0.7857 -2.15 0.25912 -0.0076587 0.41371 -0.60014 0.016243 0.27549 -0.3004 0.0098672 -0.44033 -0.43743 0.4889 -0.16344 -0.54208 -0.11522 0.11705 -0.0049948 -0.00074298 -0.0028508 0.71125 0.13694 -0.2056 0.51055 0.11706 0.041464 0.34385 0.032317 -0.18742 -0.035079 0.567 0.35788 -0.49972 0.16732 -0.53859 -0.2996 -0.12944 -0.31183 0.13015 -0.040682 0.12679 0.84127 0.40398 -0.038386 -0.45695 0.22434 -0.16827 0.029947 0.53753 -0.41606 -0.187 0.033233 -0.35124 -0.38469 -0.58827 -0.63848 -0.33004 0.34342 0.081399 -0.3697 0.31136 -0.18121 0.21933 -0.039363 0.24356 -0.22695 0.15375 -0.26114 0.41955 0.24961 0.24924 -0.058514 0.060564 0.080943 0.33756 0.05842 -0.057253 -0.17448 -0.070819 -0.52486 -0.53073 0.33987 -0.3706 0.34147 -0.38855 0.3438 -0.17944 0.24587 -0.0022833 -0.12032 -0.0073248 -0.22748 0.21644 -0.17453 0.25993 -0.32686 -0.030774 -0.10818 -0.61427 -0.62699 0.27674 0.046595 0.059088 -0.019643 0.068259 -0.46808 -0.09668 0.10451 -0.16345 -0.043946 -0.20915 -0.079096 0.1763 -0.20953 -0.071259 0.24377 0.30589 -0.047409 0.086036 0.30002 -0.053326 0.19372 0.10121 0.21371 0.4057 0.0491 0.42428 0.15553 0.091447 0.16418 0.38499 -0.14274 0.48176 -0.093935 -0.49863 -0.35895 0.13037 0.13063 -0.41152 0.27594 -0.20073 0.048467 -0.05893 0.61233 0.87128 0.27741 -0.45873 0.40905 0.3132 0.062934 -0.047619 -0.063874 0.0061796 0.3665 -0.062969 0.042522 -0.062635 0.55177 0.89814 0.19167 -0.30481 -0.012183 0.034195 -0.351 -0.2482 -0.18613 0.34201 -0.065049 0.25099 0.099586 0.056387 0.4712 -0.11611 0.050789 0.32172 -0.57115 0.22963 -0.29302 0.090084 -0.10024 -0.048367 -0.095079 0.14434 0.39046 0.65844 0.077501 -0.099196 0.17177 -0.041895 0.20811 -0.28096 -0.20699 -0.11581 -0.064777 -0.23476 -0.67064 0.3591 0.32914 -0.55088 -0.098154 0.013031 -0.3395 -0.091199 0.091669 0.25472 -0.441 -0.31054 -0.28277 -0.61795 -0.14548 0.25043 -0.092696 -0.15355 -0.38509 0.41499
experience 0.3423 0.13529 0.15073 -0.24977 0.60504 -0.02472 0.062152 0.07439 -0.031751 2.8488 -0.055044 0.15743 -0.1671 0.21169 0.26968 -0.27121 -0.15685 1.3142 -0.41991 0.39041 0.1646 -0.36118 -0.37985 -0.32573 0.071014 0.24175 0.60587 0.34276 0.20054 0.1152 0.13725 -0.3299 -0.17829 0.18658 -0.099261 0.29017 0.2654 -0.14975 -0.11531 -0.26926 0.3198 -0.37117 -0.019442 0.059186 -0.31031 0.768 -0.5131 0.16817 0.66189 -0.0041518 -0.040867 -0.12827 0.448 -0.13644 0.018924 0.5209 -0.15404 -0.3511 0.11792 -0.016885 0.18122 -0.36911 -0.01478 0.42139 0.13838 -0.33427 0.54046 -0.019611 0.14853 0.57503 0.16127 -0.087513 -0.033228 0.25658 -0.12226 0.23941 0.18543 0.21738 -0.49937 0.47926 0.26782 -0.40049 0.33319 -0.02921 0.12478 -0.38782 -1.3728 0.52558 0.24031 -0.3297 -0.2066 -0.16229 -0.42412 0.14326 -0.0093543 -0.073742 0.095907 -0.3443 -0.082014 0.34369 0.074645 -0.097613 0.020597 -0.061947 0.4128 -1.2651 0.18732 0.19486 0.14039 -0.1621 0.0027341 -0.32994 -0.12722 -0.094966 0.25016 -0.46479 0.35518 0.23375 0.20222 -0.18356 0.24339 -0.097615 -0.062233 -0.10637 0.332 -0.3017 -0.34022 -0.15961 -0.090704 0.0089132 0.47817 -0.54078 -0.29212 -0.013001 0.074698 0.11861 -0.21338 -0.03323 0.092572 0.25689 -0.38975 -0.20791 0.54629 0.016721 -0.24451 -0.34584 -0.39587 0.4881 0.15058 -0.58383 0.11765 0.0040745 -0.019671 0.23043 0.23519 -0.00023701 0.19249 0.035132 0.31071 -0.57321 -0.45134 0.23525 0.16883 -0.16548 0.40857 -0.10587 -0.13328 -0.59272 0.55014 -0.30468 -0.23159 0.073339 0.22151 -0.06664 0.1229 0.26038 -0.69257 -0.04843 0.31394 -0.14001 0.42323 0.090371 0.11814 0.23344 0.15614 -0.11072 0.070772 0.13279 0.19572 0.098468 -0.28684 -0.27016 0.12011 0.41974 -0.12099 0.3148 0.056058 -0.18122 -0.080944 0.024943 -0.0552 -0.19592 -0.0046979 0.051645 -0.23958 0.20415 -0.054889 0.016452 -0.11178 0.32701 -0.57857 -0.10578 0.21769 -0.093007 0.23679 0.038688 0.54056 -0.31575 0.05144 -0.076041 -0.14571 0.16661 -0.2015 0.36757 -0.2578 0.080631 0.10666 0.047707 -0.27038 -0.075517 -0.36088 0.1332 -0.049981 0.51516 0.13873 0.11016 -0.38578 -0.27918 -0.14266 -0.015738 0.1629 -0.18412 0.013106 0.25525 0.14561 -0.14985 -0.49288 0.063387 -0.25985 0.30098 0.59989 -0.57878 0.04293 0.2371 -0.48674 0.12482 0.30096 -0.65312 0.20263 0.26794 0.24648 0.14577 0.22262 0.14816 0.077399 0.012295 -0.067633 -0.02516 0.81056 0.29108 -0.59368 0.13241 -0.54328 -0.24403 -0.65626 0.13155 0.10774 -0.079692 0.31834 0.37967 -0.24345 -0.062185 -0.22956 -0.28078 -0.12636 -0.50339 0.33775 -0.098382 0.50075 -0.13342 -0.065017 0.10162 -0.42184 -0.068777 0.046418 -0.00753 -0.14363 0.32866 0.040783 -0.058671
car 0.20987 0.46481 -0.24238 -0.065751 0.60856 -0.34698 -0.25331 -0.4259 -0.22277 2.2913 -0.33853 0.23275 -0.27511 0.24064 -1.0697 -0.26978 -0.80733 1.8698 0.45562 -0.14469 0.016246 -0.35473 0.76152 -0.068589 0.012156 0.009052 0.11131 -0.30746 0.24168 0.114 0.43952 -0.66594 -0.073198 0.80566 0.11748 -0.38758 0.10691 0.33697 -0.13188 0.19364 0.55553 -0.34029 0.17059 0.40736 -0.1615 0.070302 0.067772 -0.81763 0.30645 -0.0099862 0.094606 -0.59763 0.14192 0.14857 -0.31535 0.099092 0.20673 -0.44041 0.21519 -0.41294 0.26374 -0.15493 0.24739 0.4209 0.18768 0.046904 0.096848 0.027431 0.10633 0.31926 -0.7626 -0.088373 0.37519 0.47369 -0.73557 -0.1076 -0.026557 -0.51079 -0.18886 0.28679 0.065798 0.57129 0.25056 0.073858 0.00847 0.015158 0.7357 0.62549 0.0516 -0.25802 -0.081203 0.13731 0.18809 -0.65871 -0.22361 -0.33318 0.15853 0.51523 0.50259 -0.16894 -0.086465 0.25036 -0.17419 -0.027723 0.11262 -0.46449 0.16956 0.28931 -0.13187 0.46368 -0.29348 -0.31244 0.65886 -0.47842 0.14754 -0.30646 0.43847 0.17684 -0.11968 -0.031002 -0.12228 -0.56424 0.15289 -0.79389 -0.36731 0.16918 -0.09521 0.1649 0.15936 0.1246 0.38846 0.23019 -0.13054 -0.21932 -0.26782 -0.60745 -0.34826 0.17656 -0.10351 -0.2275 -1.6111 -0.40504 1.0872 -0.16391 0.065586 -0.10632 -0.14014 0.17712 0.711 0.20313 -0.50138 0.17291 -0.053208 -0.40668 0.14907 -0.30631 0.46572 0.37977 -0.13336 -0.076937 0.011803 -0.11185 0.70364 -0.068615 0.58586 -0.5989 -0.28104 0.49674 0.45867 0.16291 -0.28317 0.3887 -0.39882 0.22407 -0.23704 -0.23155 0.067882 0.83828 0.13231 0.29778 0.18471 -9.7415e-05 -0.69993 0.0046959 -0.35461 -0.096413 0.10312 0.085293 -0.26909 0.43886 0.31275 0.22829 0.48072 0.18399 -0.17628 -0.48322 0.095676 -0.24499 0.058915 -0.039355 -0.46954 -0.26272 0.15462 -0.18055 0.0016881 0.057027 -0.067284 0.24853 0.35735 0.14325 -0.49276 -0.029321 0.051167 0.4962 0.37308 0.40203 0.092905 0.74061 -0.33765 -0.35641 0.61675 -0.95517 -0.27492 0.22079 -0.28898 -0.15504 -0.31433 0.58383 -0.026138 -0.27755 -0.047184 0.10504 -0.42419 -0.16414 -0.50711 0.42617 0.36889 0.43267 -0.004448 0.56442 -0.030964 0.077629 0.22218 0.12818 -0.16235 -0.22912 0.49174 -0.51937 -0.20793 -0.36868 -0.55714 -0.1993 0.29782 0.075921 -0.39895 0.81692 -0.10221 -0.38049 0.19906 -0.019875 0.073431 -0.13882 0.27914 -0.45367 0.29227 -0.55489 -0.42121 0.55667 -0.4523 -0.11956 0.13504 -0.2358 0.74221 -0.2789 -0.05458 0.31944 0.36717 0.1343 0.13629 -0.097458 -0.6031 -0.17762 0.2591 0.3315 0.22701 0.63664 0.15324 -0.32894 -0.36749 -0.20328 -1.1924 -0.46395 0.66984 -0.49404 0.44154 -0.43699 0.23538 0.32135 0.26649 0.22438
change 0.24095 0.42528 -0.175 -0.14005 -0.3968 0.22715 -0.055314 0.16604 -0.21762 2.2804 -0.67221 0.19477 0.038261 0.17199 0.11797 -0.01858 -0.25991 1.6687 -0.25957 -0.12551 -0.024749 0.012096 -0.12793 -0.3089 0.059835 0.03217 -0.30978 -0.25304 -0.087596 0.26824 -0.096607 0.23021 0.13903 -0.27261 0.56137 0.026979 0.38178 0.046719 0.024724 -0.31725 0.015351 -0.053323 0.024428 0.24085 -0.31395 -0.083952 -0.28576 -0.22082 -0.39727 -0.23723 0.36437 -0.050632 0.055809 -0.14086 0.32593 -0.12809 -0.24324 0.018503 0.38774 -0.67578 -0.015522 0.048066 -0.3719 0.10709 0.091329 -0.043679 -0.34359 -0.027783 0.28568 -0.068014 0.143 -0.040896 0.24089 -0.33096 0.43107 0.36272 0.022984 -0.19384 0.40155 -0.086788 -0.32224 -0.089589 0.0017553 0.14773 0.032766 -0.069241 -0.045959 -0.30688 0.58454 -0.047241 -0.22507 -0.19186 -0.22705 0.155 0.064118 -0.043935 0.26551 0.13068 0.0091435 0.27912 -0.20216 0.073416 0.011765 -0.11117 0.14271 -1.4046 0.1311 0.059371 -0.43648 0.52929 -0.37359 -0.32681 -0.19889 -0.26959 0.026661 -0.24587 0.17132 -0.26675 -0.32368 0.017502 -0.36964 -0.26297 -0.13251 0.47456 -0.021156 -0.057194 0.049767 -0.046603 -0.069569 -0.13304 0.096406 0.13534 0.24496 0.29084 0.17754 0.12967 -0.2978 0.059739 -0.22553 0.13253 -0.98735 -0.079004 0.10157 0.14853 0.36032 0.095464 -0.018063 0.33418 -0.73341 0.087471 -0.0027514 0.20109 0.22562 0.033098 -0.22638 -0.33903 0.15879 -0.044083 -0.1051 -0.069584 -0.23786 0.38161 0.00087392 0.12706 -0.37363 0.14502 0.041682 0.024438 0.090515 -0.37009 -0.11178 0.24955 -0.0014965 -0.077952 0.23642 0.10963 0.66147 0.12454 -0.11782 -0.11615 -0.051682 -0.17386 -0.18483 -0.028776 -0.25595 -0.036588 -0.31488 -0.08549 -0.066009 -0.178 0.12747 0.16536 0.045605 0.023898 0.19892 0.50726 -0.010051 0.31327 -0.077644 0.61843 -0.069492 -0.24619 -0.15782 -0.13339 -0.042989 0.021665 -0.025471 0.46458 0.029363 0.22636 -0.14781 -0.30673 -0.1652 -0.21065 0.2418 0.21382 -0.25006 -0.13261 -0.19671 -0.048897 0.26643 0.0058043 -0.051729 -0.15492 -0.066261 -0.0081684 0.13307 -0.029509 0.1746 -0.02961 -0.31924 0.22138 0.27467 0.54543 0.13003 -0.032532 -0.28217 -0.029703 0.044503 0.12574 0.065666 -0.1328 0.3801 0.044664 0.25666 -0.060994 0.17701 -0.0062403 -0.29541 0.0498 -0.20478 -0.10508 -0.2895 -0.0041605 -0.17075 0.4258 -0.34626 -0.1208 0.23884 0.10422 -0.41718 0.26933 0.35318 -0.11365 0.32174 -0.49511 -0.24668 0.40837 1.1537 0.36885 0.2534 -0.01156 0.24592 -0.061883 -0.0093786 -0.059328 0.12692 0.073019 0.257 0.47287 -0.11995 0.050984 -0.091092 0.12958 -0.12806 -0.53728 0.13689 0.12314 0.28311 -0.073043 -0.082355 0.36771 0.24185 -0.21836 0.40569 0.17911 -0.37361 0.29562 -0.076305 0.091093
line 0.25722 0.15498 -0.12706 -0.13047 1.2391 0.16137 0.395 0.26182 0.13251 1.726 0.076936 0.10604 0.00078356 0.10768 -0.12976 0.29089 0.07535 1.9604 -0.016177 -0.095036 -0.010252 0.37619 -0.10399 0.42301 0.39597 -0.0043331 0.037053 -0.16011 -0.30504 0.010172 -0.59015 0.12748 -0.22032 -0.28349 -0.16295 0.41593 -0.17786 -0.16253 0.15172 0.22161 -0.29298 0.25275 -0.023028 -0.51029 0.39365 -0.30055 -0.25131 0.13391 -0.1926 0.2595 0.36241 -0.091524 -0.16567 0.077651 -0.17151 0.13833 0.1392 -0.29556 -0.37315 -0.18184 0.29951 0.20095 0.044795 0.34423 0.054657 0.22812 0.30664 0.32782 0.37287 8.2243e-05 0.40322 -0.052156 0.36584 0.19256 0.093033 0.1652 0.078208 -0.23494 0.08127 0.00049243 -0.02136 -0.46026 -0.069767 -0.020518 0.15353 0.16045 0.22292 0.19803 0.15498 0.16572 -0.39788 0.72649 0.258 -0.4879 0.050002 -0.30579 0.1668 -0.21625 0.71358 -0.29165 0.019416 0.18788 -0.231 0.11361 -0.0096394 -0.68436 0.22243 0.15822 -0.37712 0.0060557 -0.3682 -0.35391 0.20972 0.13912 0.058971 0.03406 0.033125 -0.44412 0.075156 0.23841 0.051151 -0.06524 0.027033 0.26085 0.30048 -0.13041 0.44864 0.011597 0.032078 -0.47417 -0.20166 0.12003 -0.3888 0.23213 0.3745 0.2549 0.41232 -0.09128 -0.11374 -0.23474 -1.3585 0.25806 0.071712 -0.60262 0.40046 0.17823 -0.29258 -0.49636 0.23069 0.49775 -0.43168 -0.054283 0.4442 -0.12154 -0.12696 -0.17289 -0.25233 -0.1165 -0.1541 0.32205 -0.14973 0.33981 0.094715 -0.073397 0.33947 -0.12156 0.1127 -0.34624 0.084427 0.37642 0.22919 0.033003 -0.55459 -0.6753 -0.026716 0.15855 -0.39788 0.29136 -0.39793 -0.037749 -0.02221 -0.074964 -0.13457 -0.30995 -0.20771 -0.073366 -0.25254 -0.14347 -0.63285 0.0019915 -0.051848 0.28577 0.16949 0.17247 0.11415 0.044035 0.23584 -0.27741 -0.4034 0.013928 0.40161 -0.54659 0.16836 -0.068272 0.044072 0.14495 0.25026 -0.39246 -0.91238 0.041581 -0.37569 -0.075097 0.031714 -0.20388 0.096797 0.042612 0.21691 0.65622 -0.25882 0.10768 -0.42816 -0.20261 -0.038544 0.28146 0.033619 -0.76963 0.16286 -0.13702 0.18047 0.13363 -0.12133 -0.21804 0.22211 -0.37796 -0.45313 -0.13068 0.43827 0.16285 0.27269 0.13905 0.15648 0.015461 0.1468 0.16691 -0.63754 -0.4781 0.075964 -0.213 -0.3022 -0.013638 -0.56119 0.079241 0.16244 -0.30166 0.091799 0.26595 -0.023305 0.1705 0.088366 -0.11421 0.32835 0.43622 0.20437 -0.19173 0.27809 -0.15982 0.5074 0.24926 1.0738 -0.015942 -0.13141 0.48482 -0.26146 -0.24593 -0.010196 -0.18649 0.15015 0.094221 0.30925 -0.56039 -0.24316 0.38738 -0.10913 0.36698 -0.14103 0.63723 -0.24543 0.048672 0.23511 0.081469 0.14148 0.34103 0.16025 0.15788 0.0027799 -0.14455 0.18475 -0.10518 -0.20401 0.043043
live -0.1462 0.45593 -0.10123 0.23024 0.074841 -0.22167 -0.078123 -0.36813 -0.046197 2.38 -0.43155 0.31369 -0.043052 0.085368 -0.026424 0.66822 -0.37856 0.79748 -0.30398 -0.070823 -0.057536 -0.085867 0.52465 0.1178 0.0066575 0.062687 -0.12075 0.58387 0.56264 0.02512 -0.19298 -0.040066 -0.18536 0.11364 -0.41242 0.52437 0.038943 0.096837 -0.20872 -0.068851 -0.14635 0.31266 0.074663 0.39887 -0.17657 0.40579 0.10836 -0.34756 -0.073132 0.03078 -0.31327 -0.077139 -0.57664 -0.26955 0.19545 -0.09369 0.00055181 0.081199 0.20276 0.18012 -0.087488 0.14114 -0.47571 0.079564 0.47822 0.013136 -0.16622 -0.24373 -0.12993 -0.090265 -0.094655 0.64545 -0.02544 -0.43248 0.16534 -0.13958 0.016124 0.53186 0.31041 0.026298 0.36125 0.042013 0.086624 -0.31175 -0.20939 -0.24011 -0.66173 -0.37776 0.38472 -0.59561 -0.73921 0.17342 -0.22583 0.20089 0.19527 0.14307 0.024622 0.35526 -0.038069 0.29076 0.29669 0.30715 0.090133 0.2658 -0.18917 -0.315 0.3291 -0.17508 -0.12705 0.064792 0.20642 -0.38917 -0.18349 0.1209 0.26256 -0.085872 0.38762 0.35822 -0.040272 -0.10255 -0.35499 -0.32793 0.21649 -0.54857 0.089576 -0.49607 0.20114 -0.018384 0.20719 -0.099329 0.5194 -0.18398 -0.32428 -0.20784 0.59978 0.30771 0.0022092 -0.43927 -0.061205 0.17519 -2.205 -0.5655 -0.063967 -0.41866 0.19633 -0.18191 0.025261 0.0094972 -0.16007 -0.68214 -0.45148 0.16771 0.18223 -0.47514 -0.22547 -0.061572 -0.076213 -0.51079 -0.22386 -0.28688 0.17615 -0.22462 0.65935 -0.47282 0.38426 0.77371 0.32265 -0.16868 -0.2079 -0.23158 -0.025705 -0.035925 -0.036922 0.40854 0.062707 0.37331 -0.51453 0.17807 0.10925 0.044359 0.26631 -0.41697 0.36657 -0.060086 0.1041 -0.11667 -0.23915 -0.072991 0.1012 -0.70887 0.2539 0.39287 0.12203 -0.12089 -0.29613 1.0563 -0.68145 0.15741 0.0080894 -0.31994 0.16582 -0.3741 0.64553 0.0057215 0.56503 -0.069316 0.38148 -0.21904 -0.029546 -0.3127 -0.11427 -0.33288 -0.084375 0.1464 -0.95833 0.23732 0.25063 -0.27557 0.12433 0.67979 0.17094 -0.06577 -0.46491 -0.17564 -0.15502 0.21445 0.34565 0.017507 -0.057691 0.26535 0.49512 -0.012105 0.39873 0.086303 -0.12354 0.15492 -0.3528 -0.69565 0.023996 -0.21959 0.36651 0.054567 0.22885 -0.15201 0.25178 -0.40795 -0.095076 -0.076891 -0.73857 0.51927 0.14543 0.15955 0.39468 -0.39935 0.037802 0.068326 0.018318 -0.30538 0.077008 -0.15236 0.36091 0.43174 0.12036 -0.1554 -0.33408 -0.19401 0.10611 -0.1806 -0.18847 0.72342 -0.54871 -0.26153 -0.14566 0.033419 0.27716 0.094438 0.16285 0.17283 -0.10436 0.17156 0.52241 -0.13 -0.21972 -0.31019 -0.1769 -0.062565 0.60058 -0.31609 0.18133 0.083178 -0.50977 -0.049549 -0.43171 -0.22831 0.10908 0.050759 -0.13714 -0.27605 0.15242 -0.19908
group -0.21291 0.22692 -0.0038332 0.19456 0.36246 -0.17149 -0.43916 0.097728 0.30465 2.5894 -0.65459 -0.22335 0.15245 -0.25604 0.5671 -0.11116 -0.10057 1.0935 -0.39962 -0.1077 -0.048415 -0.11166 -0.25438 -0.19361 -0.12801 0.44579 0.32122 -0.083002 0.47266 -0.11748 0.35377 0.25984 0.5093 0.21906 0.49593 0.14498 -0.17804 -0.46774 -0.068496 -0.46408 0.10693 0.11155 0.026597 0.23949 -0.27259 -0.38985 0.49542 0.043512 0.2686 -0.11321 -0.40385 -0.12105 0.2038 0.13947 -0.77984 0.30123 -0.79443 -0.30709 -0.16359 -0.32378 -0.14615 0.40256 -0.11356 0.060418 -0.44612 -0.59268 -0.3294 0.52372 -0.50322 0.37795 -0.075288 0.048241 0.064054 -0.16375 0.10669 -0.49852 -0.40388 -0.026683 0.54668 0.21217 -0.034903 -0.052947 -0.38115 -0.18226 -0.050936 0.47307 -0.75683 -0.076821 -0.23253 0.2905 0.40687 0.28639 0.70271 -0.20933 0.007605 -0.2598 0.31433 0.16452 0.24151 0.44724 -0.10017 -0.017506 0.018997 -0.2274 -0.074478 -0.86271 0.50785 0.1164 -0.1955 0.80495 0.57496 0.0064824 -0.075628 0.50493 -0.096366 -0.15367 0.37589 0.41872 -0.34794 0.12272 0.30727 -0.49755 0.46233 -0.41451 0.2085 0.30469 0.53686 -0.35238 -0.3987 0.28685 0.17041 0.48537 -0.11169 0.27256 0.16007 0.037142 -0.1942 -0.23605 0.5557 -0.12225 -0.58292 -0.58254 -0.20346 -0.16874 -0.017557 -0.28067 -0.12554 -0.11058 -0.52438 -0.4195 0.07956 -0.0024528 -0.52806 -0.26113 -0.018501 0.18357 0.13488 0.31626 -0.58742 0.10117 -0.13596 0.1228 -0.0577 -0.19684 -0.16288 0.081795 -0.3884 -0.033522 -0.41235 -0.26582 0.49981 0.26801 0.050331 0.42637 -0.067345 -0.31952 -0.010211 0.027598 -0.16926 -0.17869 0.23184 0.4419 -0.23303 -0.28471 -0.3447 0.11876 -0.4708 0.14626 -0.19477 -0.28751 0.015018 0.034721 -0.42196 0.54378 0.13619 0.032221 -0.12758 -0.29093 -0.13775 0.13617 0.28928 -0.036804 0.34809 -0.11946 0.32266 0.49763 -0.53041 -0.39213 -0.13842 -0.45824 -0.51021 0.89958 0.037624 0.091594 0.010543 0.054086 0.34347 -0.36979 0.057996 -0.058376 -0.26772 0.058803 -0.4441 0.52894 0.035126 0.16098 -0.10813 0.24463 -0.14462 0.098152 0.086974 -0.21726 0.2957 0.085308 0.16816 -0.12719 -0.66583 -0.0069769 0.18761 -0.18601 -0.82964 0.32168 0.3811 -0.13146 -0.4506 -0.12222 -0.55497 -0.25557 -0.12879 -0.39872 0.41778 0.40793 0.14942 0.00043426 0.58489 -0.1208 -0.073499 0.019509 0.0075215 -0.083353 -0.054291 0.081975 -0.28252 0.50742 0.22746 0.05328 0.56204 -0.13941 0.46249 0.071312 -0.44051 -0.21676 -0.36833 -0.37137 -0.023746 -0.034532 0.15994 -0.12677 0.15406 0.213 -0.37516 0.27609 0.052118 0.0038736 -0.28793 0.067389 0.51207 0.0055463 0.49949 0.49813 -0.13539 -0.12924 0.24163 -0.11085 -0.059888 -0.13142 -0.016921 -0.1319 -0.37649 0.26359
price -1.1277 0.4237 0.31249 -0.3565 0.26942 -0.38728 0.027916 -0.22717 0.0074553 1.3484 -0.53609 0.55885 -0.05606 -0.031108 0.35712 -0.22452 -0.41342 2.0563 0.20002 -0.39502 -0.53012 0.38163 0.095866 -0.23206 -0.44665 0.38153 -0.16463 -0.41229 0.15168 0.74753 0.0065462 0.01505 0.042165 0.56072 -0.092411 0.108 0.10207 -0.076134 0.45326 -0.17708 -0.096489 0.14683 0.60314 -0.11424 0.26724 0.068483 -0.2324 -0.52693 -0.20094 0.48202 -0.1181 -0.0081932 -0.29936 0.68998 0.67692 -0.61359 -0.46325 -0.37053 -0.54384 -0.23342 -0.14867 -0.80461 -0.39925 0.087567 0.19021 0.10521 -0.035101 0.18914 -0.21213 -0.18024 0.37958 0.30734 0.16991 -0.11678 0.47359 -0.19973 -0.0089459 -0.34486 -0.045324 0.38898 -0.051784 0.248 0.4095 0.40817 0.46022 0.037065 0.33424 0.37617 0.98521 -0.1994 -0.42009 -0.09897 -0.42649 -0.24202 -0.32822 -0.28196 -0.009374 0.11587 0.56075 -0.046385 0.08874 0.31661 -0.37276 0.1527 0.019383 -0.44901 0.40755 0.26179 -0.41628 0.24986 0.099083 -0.88562 0.48882 0.082813 0.28282 -0.10651 -0.048197 -0.38573 0.65031 -0.25271 -0.11648 0.15159 -0.12515 0.30911 -0.31993 -0.090276 -0.21598 -0.36098 -0.26436 -0.3574 0.78459 -0.59871 -0.10409 -0.31837 0.19633 0.26456 -0.33078 0.59441 0.16332 -0.41591 -0.81792 0.23386 0.54754 -0.46575 0.049017 -0.086112 0.43665 0.24325 0.43841 0.40682 0.17034 0.22607 0.32617 -0.20107 0.37182 -0.12974 0.11236 0.62097 -0.27106 -0.21285 -0.13556 0.49187 -0.17618 -0.88002 0.084976 -0.12545 0.69536 -0.28974 0.5227 -0.53105 -0.5444 0.094354 -0.59211 0.20973 -0.37798 -0.17288 0.010565 0.071815 0.12289 -0.17667 0.64283 -0.056375 -0.50693 0.0638 -0.41034 -0.25271 0.35808 -0.76428 0.20644 0.61946 -0.19774 -0.073438 0.15391 0.081505 -0.42563 -0.68938 0.15039 -0.20345 0.21561 0.36619 0.6132 -0.46517 -0.73673 -0.46457 -0.61781 0.35303 -0.29521 0.13393 0.24695 0.74818 -0.32157 -0.35728 -0.18529 -0.35343 0.40569 -0.14661 -0.22407 0.54218 -0.55609 0.48616 -0.4322 0.1945 -0.19841 -0.78558 0.15801 -0.30937 -0.13649 0.2172 -0.092233 0.24406 0.33683 0.15974 -0.0047346 -0.39362 -0.29449 -0.0027859 -0.18213 0.012273 -0.24211 0.14323 -0.18952 -0.097285 0.12921 0.028112 0.33286 -0.12451 0.25921 -0.32476 -0.052889 -0.25185 0.0087746 -0.10806 0.23436 -0.2296 0.22767 0.8764 0.35904 -0.25414 -0.015817 -0.28041 0.038176 0.16379 -0.13034 0.096083 -0.36813 -0.5694 0.20338 0.521 0.44772 -0.19193 0.20672 -0.11657 0.19053 0.28742 0.017389 -0.062566 -0.27996 0.43148 -0.34955 0.16344 -0.34753 0.015485 0.31108 0.26195 -0.045371 0.39161 0.048243 0.18577 -0.42332 0.25639 -0.87535 0.24064 0.061549 0.056357 -0.231 -0.069879 -0.55648 -0.33436 0.23305 -0.012327
problem -0.18097 0.37808 -0.26582 -0.33562 -0.5057 -0.17184 0.33709 -0.3641 0.12917 2.1449 -0.17642 -0.1934 0.47386 -0.27022 -0.5043 -0.33569 -0.0085982 1.5109 -0.15879 0.47184 -0.094154 -0.33159 0.071785 -0.14575 0.13197 -0.606 0.15547 -0.07851 0.14325 -0.27684 -0.1963 0.44297 0.045017 -0.34358 0.091719 0.49566 0.3662 -0.35319 -0.11769 -0.32618 0.26889 -0.25348 -0.41805 0.34462 -0.079921 0.44045 0.028895 -0.08312 -0.44006 0.042108 -0.18099 0.56746 -0.16404 0.038113 -0.058355 0.024439 -0.048316 -0.29764 0.27242 0.26612 -0.3695 -0.47415 -0.17763 0.18531 0.48669 -0.64134 -0.062311 -0.094774 0.13355 0.30428 0.29722 0.20128 0.45268 0.17814 0.26771 0.074249 -0.11079 -0.25976 0.039084 0.49136 -0.46641 -0.24186 0.11698 -0.26409 -0.32469 -0.21626 0.16324 -0.64196 0.25453 0.24945 -0.56784 -0.017798 0.02699 0.30726 0.2328 -0.20805 0.095715 0.14321 0.47186 0.30409 -0.34187 0.0048296 0.19166 -0.37291 0.19202 -1.4811 -0.17052 0.083045 -0.50569 0.12059 -0.49863 -0.21204 -0.023367 -0.39783 -0.32225 -0.21353 -0.24394 -0.047653 -0.10029 -0.58213 -0.09608 -0.2582 0.069964 -0.49419 0.13134 -0.057408 0.03294 0.15786 0.034746 -0.050585 0.30322 -0.094777 -0.30552 0.15094 0.44841 0.23742 0.10228 0.28151 -0.08631 -0.20595 -1.0732 0.10133 0.33706 0.25314 0.15376 0.17093 -0.33768 0.0031213 -0.23878 0.18533 -0.11679 0.18826 -0.01775 -0.010995 0.13095 0.26746 0.28774 0.47194 -0.20757 -0.14496 -0.57343 0.16959 0.061763 -0.12599 0.15346 0.053946 -0.065975 0.097969 0.44346 -0.23428 -0.5077 0.064581 0.2009 -0.30454 0.12358 0.27245 -0.060125 0.29555 0.36752 0.069365 -0.083551 0.07295 -0.3784 0.078176 -0.21765 -0.28264 -0.12128 -0.052948 -0.21288 -0.17431 -0.19144 -0.17941 -0.40351 -0.14768 0.18357 -0.037391 0.1397 0.19454 0.16118 0.67091 -0.19756 -0.32573 -0.54407 0.1047 -0.035149 -0.014964 -0.16638 0.28755 -0.12697 0.53304 -0.18485 -0.32815 0.11222 -0.23849 0.086982 -0.79965 -0.6 0.35978 -0.78928 -0.26819 0.073698 -0.064249 -0.15639 0.048755 -0.021802 0.1035 0.39467 0.029991 0.12091 -0.10715 -0.11472 0.1491 0.27666 0.26912 0.22969 0.35436 0.014537 0.00321 -0.1323 0.12897 0.16406 0.26666 0.098904 0.1975 -0.37555 -0.53468 0.19725 -0.12369 0.096802 -0.014748 0.0059969 0.21035 0.30386 0.16657 -0.071397 -0.28994 -0.18075 0.026511 0.45033 -0.14433 0.10554 0.20275 -0.01134 -0.31313 0.050148 -0.2159 -0.15751 0.28133 0.95324 0.050325 0.31215 0.2796 0.052383 -0.74526 -0.20973 -0.20805 0.08921 0.072309 -0.12341 0.45022 -0.21566 0.31414 0.072702 -0.11727 -0.053725 -0.3624 0.10063 0.037619 -0.16565 -0.2265 -0.36831 -0.084529 -0.1234 -0.17414 0.34371 0.030301 0.014887 0.11954 -0.21609 0.14397
health -0.32881 0.21108 0.043552 0.13979 -0.52884 -0.051644 -0.33082 -0.12381 -0.027482 3.2725 -0.95697 -0.18551 -0.1315 0.19451 -0.17047 0.26562 0.22098 1.7486 -0.64204 -0.077755 -0.02453 0.6374 -0.030614 -0.62041 0.23933 -0.36727 0.060124 0.23843 0.26267 -0.37098 -0.60564 -0.069927 0.33869 -0.4265 0.34224 0.013294 0.10972 0.060027 -0.41023 0.44138 0.29172 0.33538 -0.5154 -0.29832 -0.23043 0.15725 -0.43485 0.21103 0.2104 -0.080232 -0.79495 -0.26638 0.69827 -0.38734 -0.087617 0.092663 0.22422 0.61503 0.11925 -0.53161 -0.041816 -0.30765 -0.16384 -0.12057 0.53617 0.20648 0.32788 -0.019545 -0.27603 0.30034 -0.60207 -0.26588 0.20489 -0.10422 0.73177 0.25777 0.10356 -0.29657 0.15593 -0.11592 0.03437 0.19574 -0.21414 0.38057 -0.25573 -0.3961 -0.3381 0.085079 -0.2412 0.10286 0.036657 -0.11592 -0.16387 -0.30408 -0.47404 -0.4956 0.066344 0.021715 -0.096796 -0.050327 -0.19369 -0.041357 0.31388 -0.13101 -0.35704 -1.6251 0.10732 -0.062876 -0.5127 -0.20636 -0.0051127 0.38329 -0.59936 -0.51844 0.20495 -0.026191 -0.0088076 -0.0062742 0.31784 -0.010431 0.32659 0.56179 0.019495 -0.73675 0.062946 0.16263 0.36373 0.048501 0.15951 -0.312 0.060345 -0.39996 0.23356 -0.34421 0.2709 0.21531 -0.049184 -0.35621 -0.057325 0.0073295 0.22404 0.27215 0.67054 0.029539 0.22605 -0.21835 0.21361 0.24876 -0.41475 -0.079038 -0.32564 -0.43497 0.41842 0.18752 0.010096 -0.08193 0.47166 0.11185 -0.4266 -0.013805 0.50503 0.52691 0.13217 -0.4379 0.059767 0.1371 0.64892 -0.31629 -0.14315 -0.55207 0.1771 -0.28379 0.407 0.074761 -0.13422 0.23964 0.17042 0.71176 0.71834 0.63868 -0.32481 0.016447 -0.14155 0.3102 0.37969 -0.17846 -0.15653 0.095415 -0.73072 0.14173 -0.33896 -0.048991 0.24626 -0.515 -0.16697 0.46497 0.016621 -0.0033207 0.57353 0.24674 0.00097843 -0.29414 -0.15266 0.14994 -0.47668 0.56139 -0.20623 0.18259 -0.12693 -0.42322 -0.51254 -0.04517 -0.24755 0.2195 -0.27637 -0.86335 0.51941 0.29018 -0.38674 -0.19382 -0.72564 -0.046659 -1.0637 0.28793 -0.11768 -0.27369 -0.15231 0.12132 -0.056115 -0.038326 -0.44486 0.11362 0.23695 -0.48947 -0.22704 0.21016 0.14257 -0.47739 0.091464 -0.11329 -0.70159 -0.25456 0.35839 -0.093338 -0.15415 0.17727 0.084677 -0.36589 -0.27441 -0.43006 0.40131 0.16713 0.25995 -0.27959 -0.10164 0.48964 -0.46979 0.26124 -0.20056 -0.24723 -0.75513 0.063123 0.36439 0.29707 -0.080736 -0.42967 -0.30026 -0.032673 0.19879 -0.14637 -0.45976 -0.20188 -0.037192 0.1492 0.086076 0.56872 0.062187 0.43064 -0.16964 0.53078 -0.81827 -0.041262 0.25041 0.10046 -0.19745 0.30148 -0.081346 -0.065166 -0.041397 0.1175 0.092175 0.054948 -0.0033672 -0.076881 -0.05531 0.057904 0.016996 -0.23823 0.15785 0.24124
food -0.43512 0.028351 0.4911 -0.35168 -0.11578 1.0369 -0.09755 0.086624 -0.1789 2.4555 -1.2798 0.021074 -0.03225 0.094673 -0.14 -0.52143 0.00066447 1.8051 -0.22604 0.33227 0.00041163 0.062654 0.14973 -0.5026 0.089701 -0.26908 -0.083594 -0.16677 -0.17036 -0.32049 -0.23586 -0.40395 0.32683 -0.21712 0.098576 0.47552 0.092994 -0.061034 0.12673 0.60856 -0.0067936 -0.21831 0.021751 -0.24858 -0.035244 0.13692 -0.37109 0.54421 0.040017 0.13992 0.039967 -0.31745 0.24408 -0.2355 0.24884 -0.31929 0.11282 -0.010198 -0.050538 -0.1155 0.30273 -0.61441 0.016135 0.010675 0.15108 -1.1759 0.097104 0.071706 0.19795 0.27253 -0.22122 0.64478 -0.066252 -0.29403 0.16281 -0.0078554 -0.14986 -0.11364 0.36459 0.13723 0.46612 0.26157 0.0065022 -0.67068 -0.075247 -0.50802 -0.049202 0.90222 -0.30085 0.15453 -0.44762 -0.30997 -0.14006 -0.48079 0.07838 -0.20951 -0.07558 -0.37064 0.48714 -0.31549 -0.51954 -0.23939 -0.066667 0.18613 -0.0022506 -1.1914 0.88962 0.077849 -0.028469 -0.20316 0.1663 -0.51348 -0.5587 -0.23375 -0.053809 -0.22482 -0.16111 -0.055308 0.25306 -0.26012 -0.44041 0.45938 0.2086 -0.37273 0.18066 -0.68302 0.6074 -0.43613 0.21322 0.080519 0.23692 -0.82568 0.60825 0.28487 -0.21523 -0.25527 -0.02536 -0.20474 0.17836 -0.46982 -1.5028 -0.13935 0.63359 0.077543 0.23253 -0.9455 -0.31292 0.1868 -0.15495 0.044739 0.039165 0.25441 0.3317 -0.072885 0.26937 -0.46139 0.67444 0.040953 0.17357 0.24625 0.11436 -0.019437 0.084576 -0.25671 -0.19088 -0.0097901 0.4067 -0.52662 0.33074 -0.016063 0.50736 -0.078741 -0.10957 -0.16075 -0.57401 0.32421 0.26512 0.22437 0.168 0.0083381 0.29091 -0.8531 -0.10966 0.012598 0.19428 -0.34592 0.15497 0.11221 -0.019593 -0.51683 -0.27562 -0.29003 -0.29849 -0.74871 -0.43796 0.53964 0.25437 0.43718 0.56013 -0.24569 -0.026945 0.35646 0.15037 0.10629 0.31965 0.35652 0.029006 0.83085 0.78779 -0.58642 -0.078122 0.19765 -0.14726 -0.13157 -0.068822 -0.30101 0.32966 -0.19465 -0.15736 0.16771 -0.39267 0.31687 0.080543 -0.021005 -0.028093 -0.0086245 -0.11506 0.078586 -0.43331 0.15771 -0.30605 -0.32882 0.18208 -0.39534 0.33031 -0.099457 -0.16041 0.057775 0.20208 -0.3808 -0.23455 -0.025349 -0.23527 -0.081126 0.035611 0.56273 -0.096986 -0.38146 -0.62962 -0.20775 0.05543 0.44946 -0.27455 -0.11277 0.31322 0.71544 0.022552 0.0783 -0.25574 -0.23078 -0.76146 -0.13497 -0.474 -0.11224 0.11929 0.45973 -0.21328 -0.039544 -0.11253 -0.060995 -0.52906 0.18361 0.059157 -0.31468 0.10018 0.43707 -0.064725 0.50211 0.29269 0.8572 -0.22293 0.11703 -0.036008 -0.30947 -0.069151 0.43019 0.67241 -0.083894 -0.2771 0.1445 0.26701 0.32489 -0.077239 0.078217 -0.28737 0.30253 0.21972 -0.47151 0.4301 0.36573
country 0.073677 0.52156 0.31504 -0.25743 0.63185 -0.14061 0.044108 0.055817 -0.45327 3.3915 -0.88491 0.014696 -0.44164 -0.27146 0.065846 -0.14115 -0.18359 0.55882 0.34735 0.49206 -0.29363 0.15864 0.18245 0.24616 -0.054651 -0.26116 -0.20582 0.17782 -0.23421 0.20985 0.34395 -0.0075486 0.112 -0.43141 0.079923 -0.10038 -0.15685 -0.28106 0.13058 0.41862 -0.088605 0.27584 0.25731 0.19394 -0.20442 -0.44856 0.48795 -0.24139 0.099646 -0.33894 -0.63024 0.24977 -0.046698 -0.34425 0.39504 -0.10694 0.159 -0.20601 0.37994 -0.18441 -0.011135 0.44415 -0.16894 0.48023 -0.14859 0.25886 -0.15207 0.068721 0.31572 0.093189 -0.1545 0.15372 0.08552 0.07576 0.037679 -0.11032 -0.46535 0.060151 0.22266 -0.057096 0.2431 0.077502 -0.027466 0.22253 0.063764 -0.11032 -0.51599 -0.26317 0.24936 0.065643 -0.63565 0.42987 -0.029761 0.3431 0.36958 -0.14985 -0.010331 0.35013 0.23337 -0.026436 0.058446 0.24483 0.062583 -0.080011 0.028214 -1.2912 -0.18775 -0.60695 -0.0063716 0.14873 0.026929 0.15888 -0.32923 0.073494 -0.21069 0.19517 0.43057 0.22497 -0.38262 -0.22372 -0.1567 0.4025 -0.0037874 -0.29402 -0.10453 0.1405 0.37299 -0.13432 0.18656 0.12897 0.13341 0.21084 -0.15417 0.23159 0.14429 -0.056674 -0.1582 -0.090158 0.15389 0.020603 -1.2563 -0.072555 0.47897 -0.11825 -0.13344 -0.32498 0.31805 0.36749 -0.063748 -0.0332 -0.078104 0.54223 0.1781 0.03197 0.13234 -0.20405 0.13638 0.15627 -0.18841 0.16863 0.28886 0.63842 0.3437 0.26142 -0.27519 -0.081966 0.18173 -0.79317 0.29495 -0.089134 -0.025122 -0.06273 -0.43742 -0.094726 0.23308 -0.0031573 -0.24452 -0.16524 0.33 0.2275 -0.055493 0.2203 -0.034697 -0.16371 -0.030245 -0.21101 -0.0038922 -0.60171 0.25657 -0.0779 0.048353 -0.12459 0.43748 -0.3265 -0.44642 -0.26771 -0.26969 0.010791 0.12442 -0.14951 0.073467 0.27785 -0.099041 0.47987 0.81533 -0.086449 0.10389 -0.1379 0.32915 -0.42558 -0.014294 -0.10049 0.20973 0.18192 0.035562 0.20906 -0.25884 0.035913 -0.39429 0.40285 -0.099147 0.42667 0.1645 -0.037389 0.21325 0.23748 0.18422 0.048579 -0.15025 0.4055 -0.16716 0.1585 0.13047 -0.27072 -0.16372 -0.12832 -0.29426 -0.32611 -0.12043 -0.031426 -0.52571 0.069698 0.26968 0.23319 -0.023935 -0.13453 0.36339 0.028202 -0.24358 -0.3691 0.50481 0.17517 0.3022 0.30645 -0.31637 0.5552 0.42868 0.0049956 -0.65471 0.40311 -0.31145 0.13433 -0.15962 0.076983 -0.08044 -0.57552 -0.24244 -0.091352 0.066212 0.21943 -0.27501 -0.0073063 -0.25534 -0.43932 0.1357 0.050314 0.051101 0.19769 0.3544 -0.49134 -0.35106 0.015612 -0.33875 0.17543 0.065076 -0.26565 0.21258 0.065287 -0.11036 0.02895 -0.19406 -0.13524 -0.21956 -0.4605 0.13587 -0.15926 0.059141 0.036609 -0.12966 0.1643
market -0.19604 0.53656 0.09678 0.091406 0.55239 -0.35628 0.044962 0.087634 0.16063 2.3887 -0.88248 -0.028518 0.27563 -0.28458 0.059872 -0.11705 -0.038217 1.6513 0.025953 0.24036 -0.023312 0.34793 0.093788 -0.17122 0.10071 0.25988 -0.0064146 0.28694 -0.50745 0.021718 0.018635 -0.37253 0.049877 -0.28515 0.29496 0.099533 0.30734 0.10704 0.20818 -0.00060312 -0.20403 -0.27498 0.28242 -0.0083811 -0.072989 0.17635 -0.1461 -0.59168 -0.27298 0.094862 0.17139 -0.21757 -0.36918 0.40059 0.65714 -0.42207 -0.27671 -0.5415 -0.051662 -0.29706 -0.13168 -0.66522 -0.14456 0.64639 0.19383 -0.45047 0.14796 -0.16143 -0.027592 -0.066674 -0.21472 0.0363 0.18473 0.12061 -0.51387 -0.26183 0.11311 -0.13566 -0.10236 0.44088 0.13146 0.31329 0.13062 -0.023882 0.016375 0.41283 -0.67582 0.50395 0.24169 0.14416 0.027604 -0.11616 -0.10099 -0.26577 0.23186 -0.25986 0.32212 0.30144 -0.013495 0.17722 -0.02639 -0.034293 -0.12902 0.11548 -0.051008 -1.6194 0.09988 -0.49795 0.24903 0.38232 0.23441 -0.45382 0.31389 -0.31797 -0.14508 0.17423 -0.28577 -0.58558 0.73546 -0.04224 -0.15557 0.59616 -0.10231 0.10323 -0.29937 0.010994 0.16216 -0.13373 -0.13841 -0.19997 0.33198 -0.32413 0.51851 -0.033395 -0.6086 -0.32581 -0.24112 -0.08192 -0.21629 -0.1772 -0.39743 -0.60578 0.48794 -0.97202 -0.030489 -0.36939 0.27248 0.30084 0.5128 -0.18207 0.34796 0.29168 0.39164 -0.43704 0.123 -0.18262 -0.065439 0.26889 -0.21485 -0.39111 -0.02016 0.56234 -0.18199 -0.51278 -0.21161 -0.16943 0.59123 -0.26086 0.38208 -0.20644 0.38952 0.13345 -1.0043 -0.17694 -0.20091 -0.18361 -0.28464 -0.14102 0.11215 0.33473 0.40064 -0.29332 0.050321 -0.55324 -0.4054 -0.38763 0.26867 -0.38074 -0.0070794 -0.052822 0.25687 -0.50747 0.33956 0.29424 -0.09652 -0.38269 0.22006 0.39065 -0.1571 0.33812 -0.14649 0.057723 0.27829 -0.39672 -0.21966 0.2211 -0.02039 -0.16007 0.083819 0.11759 -0.54172 -0.84618 -0.10475 -0.216 0.20678 -0.34569 -0.005367 0.096431 -0.61158 -0.24837 -0.25342 0.31511 0.14769 -0.31613 0.084871 -0.54341 -0.30282 0.25967 -0.20932 -0.19334 0.20932 0.21729 0.19931 0.068763 -0.15297 -0.24106 -0.14017 -0.48092 -0.11429 -0.20544 -0.30687 -0.29005 -0.10269 0.19073 -0.16858 -0.22271 0.59749 -0.0037763 -0.18684 0.16766 0.031799 -0.15505 0.22705 -0.11234 -0.27536 -0.012457 0.41091 -0.060209 -0.077237 -0.37327 0.32046 -0.0045415 -0.26022 0.45153 0.16551 -0.37264 -0.15246 -0.21104 0.5219 -0.027424 -0.56017 0.1646 0.24651 -0.10802 0.0932 -0.22342 -0.034684 0.29707 0.26332 0.1792 -0.36112 -0.13764 -0.17437 0.13276 0.10453 0.21938 0.22115 -0.27122 -0.059632 0.15093 -1.0878 0.47625 0.075284 -0.22994 -0.3226 -0.63504 -0.2989 -0.4953 0.43389 0.18477
news -0.39649 0.75954 0.038494 0.12679 -0.040559 -0.12469 -0.37223 -0.44589 0.18275 2.3846 -0.60337 -0.6146 0.32219 -0.42112 -0.85295 0.079293 -0.069344 0.23784 -0.14389 -0.23969 0.2891 0.24446 0.24294 -0.24253 0.22485 0.47914 -0.48908 0.45791 -0.0073576 -0.016643 -0.55898 -0.3903 -0.088336 0.2971 0.2312 0.55672 -0.20742 0.18299 -0.055134 0.39322 0.26312 0.0884 0.058196 0.16642 -0.5968 -0.027267 -0.086263 0.025282 -0.10895 -0.55071 -0.62018 -0.38853 -0.25509 -0.18115 -0.45197 -0.15216 0.15572 -0.043773 -0.19972 -0.393 -0.24651 0.00026725 -0.077313 0.32294 0.49525 0.12711 -0.12855 -0.24056 -0.098781 0.58156 -0.093676 -0.12854 0.21211 -0.49263 0.14736 0.32749 0.059297 0.18613 0.42326 0.26668 0.20558 0.04414 -0.51537 0.081862 0.32835 -0.11856 -0.76922 -0.15633 0.28529 0.16523 0.15477 0.0094432 -0.90066 -0.18454 0.2053 -0.21744 -0.21606 -0.023421 0.45958 -0.35491 -0.28724 -0.12634 -0.053987 0.37739 0.34212 -0.12874 -0.018001 0.072465 0.017538 0.30268 -0.5086 0.28925 0.139 0.313 0.20459 0.30544 -0.26183 -0.048945 0.18548 -0.18613 -0.088376 0.17184 0.13299 -0.46602 0.23857 -0.11762 0.092951 -0.097567 0.1539 -0.17845 0.20971 -0.48384 0.32178 -0.30439 -0.14525 -0.13042 -0.89749 -0.26756 0.040811 0.040878 -1.2565 -0.26944 0.38981 -0.26514 0.17949 0.002634 -0.44145 -0.028569 0.011355 -0.033138 0.19067 -0.18228 0.39204 -0.48188 -0.14446 0.12198 -0.068078 0.16704 0.2599 -0.10387 0.56875 -0.10922 -0.13617 0.028618 -0.23412 0.0051985 -0.13963 0.52822 -0.22303 -0.59333 -0.12134 -0.14207 -0.12188 0.14333 -0.058164 0.040437 0.31298 -0.021896 0.20764 0.23226 -0.10494 -0.31632 0.23262 0.3861 -0.022715 -0.0085752 0.13399 -0.096989 -0.37511 -0.56706 -0.063456 -0.55048 0.33673 -0.0044223 -0.14519 -0.023968 0.058136 0.041014 0.27857 -0.13297 0.14376 -0.1866 0.5728 -0.21119 0.072551 -0.029544 0.0040171 0.25341 -0.71598 -0.11707 -0.20108 -0.29724 0.49803 0.21013 -0.59849 0.021407 -0.34426 -0.38248 -0.66642 -0.13041 -0.34778 -0.24602 -0.054273 0.41359 -0.38632 -0.0030163 -0.21373 0.0068925 0.18156 0.036295 -0.028428 0.12624 0.15141 -0.307 0.069979 -0.51041 -0.53808 -0.14954 -0.028711 0.62871 0.049997 -0.68436 0.00033023 -0.64985 0.25859 0.40097 0.58971 0.04032 0.19413 -0.068169 0.16533 -0.042739 -0.09409 -0.81242 0.51974 0.24099 -0.15688 -0.11903 -0.26347 -0.42415 0.41287 -0.27753 -0.17623 0.32944 0.50289 -0.5487 -0.18425 0.042746 0.57119 -0.011195 -0.82649 0.20142 0.30307 -0.092705 0.32209 0.27313 0.13153 -0.1218 -0.042005 -0.033703 -0.023582 0.079771 -0.055532 0.46233 0.23177 0.17858 -0.21174 -0.21801 0.41393 -0.016632 -0.55352 -0.13488 0.046339 -0.12612 0.055706 -0.5826 -0.2274 -0.75614 -0.047301 0.6592
government -0.59317 -0.20524 0.59963 -0.20614 -0.4499 -0.25094 -0.39048 -0.16633 0.076834 3.9483 -0.69022 0.076302 -0.20318 -0.098804 -0.50777 -0.28047 -0.35244 0.52559 -0.078942 0.19453 0.42496 0.0015434 0.19242 -0.10357 -0.30228 -0.15832 -0.3135 0.14999 0.067347 -0.0115 -0.34016 0.069363 0.062157 -0.1544 0.48721 -0.22155 -0.1333 -0.054299 -0.040531 0.035147 0.59357 0.29218 0.12538 -0.16715 0.20001 -0.28913 0.3449 0.32057 0.069874 -0.25415 -0.091479 0.39136 -0.12817 0.46579 -0.015724 0.079402 0.23356 -0.34768 0.11357 -0.35441 -0.48995 -0.13786 -0.07095 0.29739 0.3414 0.12882 -0.45903 0.1118 -0.19327 -0.49566 -0.19867 0.047604 -0.16253 -0.11004 0.17062 0.0087839 0.18933 0.047396 0.02132 0.24856 0.32091 0.30878 0.0023635 0.022187 -0.17998 0.082019 -0.65221 -0.95366 0.77215 0.17211 0.24388 0.055103 -0.079756 -0.24202 0.29279 0.16693 -0.55758 0.34713 0.14964 -0.71684 0.16679 0.2988 2.9484e-05 0.16259 -0.034569 -2.0387 -0.36451 -0.14905 -0.37564 0.2911 -0.30547 0.56054 -0.56598 -0.24726 -0.23362 0.14999 -0.18842 -0.37343 0.022451 -0.13785 -0.22353 0.04216 -0.35833 -0.12562 -0.55714 -0.14858 0.16597 -0.0059008 -0.052377 -0.16199 -0.27045 0.30822 0.051103 -0.5214 0.040689 0.16663 -0.18837 0.29102 0.094543 -0.16826 0.141 0.258 0.17353 -0.42522 0.14059 -0.42945 0.09895 0.18982 -0.49913 0.16993 0.13351 0.15795 0.024084 0.38115 0.48946 0.19469 0.0028516 0.18307 0.0049851 0.6754 0.3007 0.29405 -0.093202 0.65891 -0.68267 0.030106 0.15682 -0.84123 0.071846 -0.048799 0.040192 -0.057667 -0.23111 0.33506 -0.087624 0.08429 0.15662 0.1199 0.63289 0.31418 0.035922 0.21121 -0.44634 -0.5638 0.034026 0.20414 -0.23635 0.033167 0.08458 0.30346 -0.016317 -0.23447 0.10342 -0.29266 -0.42216 -0.36565 0.20464 0.024009 -0.33156 0.28244 0.067117 0.25959 0.39084 -0.10624 0.71797 0.12315 0.1371 0.046581 0.43497 0.004342 0.29932 -0.2127 -0.33436 0.45338 0.39569 -0.22266 -0.60129 -0.065276 -0.65718 0.31596 -0.28745 0.24865 -0.17358 0.42204 0.31332 0.15993 0.0057973 0.36566 0.29489 -0.14357 0.26024 0.035314 0.20476 -0.54635 0.14955 0.26765 -0.028741 -0.11257 0.56097 0.33478 -0.18216 -0.24448 0.15653 0.25913 -0.16948 -0.24096 0.48315 -0.16886 -0.32276 -0.32204 0.19425 0.7083 0.076797 -0.0033845 0.27582 0.57364 -0.090563 -0.081456 -0.36954 -0.14029 -0.23477 0.54118 -0.26343 0.47904 -0.14037 -0.71784 -0.57394 -0.26112 0.56224 -0.10904 0.44864 0.033135 -0.0037876 0.018089 0.3333 0.099857 0.12061 0.2425 0.36422 -0.23995 -0.12184 0.019394 -0.18935 0.64721 -0.02391 0.2602 0.042131 0.46298 -0.30534 -0.19585 -0.20185 0.25717 0.43501 -0.038619 0.17482 0.20245 0.20294 -0.24471 0.258 -0.037181
